/*This file is automatically generated from a Keras model*/

#ifdef HAVE_CONFIG_H
#include "config.h"
#endif

#include "rnn.h"
#include "rnn_data.h"

static const rnn_weight input_dense_weights[1008] = {
   -7, 90, 14, -8, 39, -78, 64, -49,
   -24, 9, 8, -32, 9, -46, 10, 86,
   -4, -25, -1, -34, 22, 3, -86, 1,
   65, 16, 40, 45, -77, -9, 13, 39,
   82, -70, -27, 9, 6, 50, -26, 42,
   6, -62, 7, -99, -65, 28, -33, 2,
   -85, -12, 88, -45, 53, -38, -27, -61,
   -55, 13, 83, 66, -51, -42, 8, -5,
   -37, -64, 82, 9, 7, -30, 55, -13,
   2, -25, 43, -7, 26, -44, -16, 14,
   59, 69, -45, -82, -50, -8, 71, 9,
   16, 73, 45, -59, 65, 75, 63, -46,
   27, -13, 63, 78, 27, 50, -16, -51,
   -43, -12, 67, 1, -32, -48, 11, -7,
   -32, 64, -45, -61, 41, -63, 4, -46,
   -5, 35, 33, -88, -3, 98, 28, -3,
   7, 4, -64, -99, -19, -74, -32, -95,
   -7, 50, 30, -28, 20, -50, -17, -26,
   -63, 36, 11, 109, 12, 6, 58, -62,
   -27, 105, 46, 78, 15, 68, -112, -57,
   -112, -34, 19, 32, 36, -95, 2, 41,
   -43, -45, 52, -15, 41, -18, -40, -48,
   64, -51, -30, -102, -99, 52, 16, 27,
   39, -1, 94, -53, -29, 14, 8, -10,
   -43, -14, -91, 42, -75, 2, -52, -54,
   -4, 71, 20, 70, 19, -9, -121, -39,
   -68, -47, -45, 35, -128, -56, -109, 43,
   -67, -128, 3, -34, 14, 11, -19, 64,
   -10, 26, 97, -8, 36, -35, 46, -73,
   -20, -78, -6, 41, 98, 9, -15, 42,
   -21, -8, -128, 102, -57, 56, -28, 25,
   16, 113, -26, 73, 32, -81, -87, 54,
   56, -47, -61, -62, -117, -37, -100, 127,
   45, -44, 22, -111, -102, 105, -128, -97,
   -43, 75, 99, -21, 83, -7, -78, 7,
   -121, 50, -55, -6, -98, 24, -18, -32,
   -105, -58, -16, -75, -98, 1, 12, -79,
   -38, 116, 127, 24, 67, -72, -119, -61,
   -39, 5, -128, 56, -126, -101, -50, 85,
   4, -51, -128, 26, -128, 127, -66, -117,
   -45, 87, 48, 51, 36, -25, -98, -106,
   -128, 97, -90, 40, -121, -31, 0, 127,
   30, -15, 77, 42, 120, -31, 65, 69,
   2, -14, -125, 32, -81, 16, 54, 5,
   127, -51, -45, 14, 95, 69, 9, 23,
   -100, 16, -128, 124, -128, 11, -82, 34,
   -117, 62, -32, 70, 58, -60, -128, -103,
   -23, 67, -68, -71, -128, 11, -45, 127,
   46, -82, 98, -63, 61, 48, -119, 40,
   63, -12, 127, 27, 2, 7, -18, -107,
   26, -54, 34, 65, 62, -46, 0, 46,
   14, -11, -35, 121, -21, -77, -15, 77,
   21, 99, -85, -20, 110, -57, -93, 12,
   -54, 3, -25, 66, 55, -72, 28, -24,
   -29, -43, 28, 13, 84, -24, 27, 112,
   105, -87, -110, -17, -54, 85, 80, -26,
   120, -43, 69, -75, 91, 89, 48, -51,
   -7, -8, -114, 18, -51, 60, -1, -39,
   -23, 7, 127, 24, 72, -105, -101, -12,
   -128, 72, -36, -78, -115, 3, -61, 40,
   -27, -32, 62, -81, 27, 3, -70, -21,
   44, -61, 95, -39, 31, 30, 20, -43,
   45, -33, 78, 19, -46, -77, 90, -89,
   -86, 22, 8, 115, 57, -19, 104, 18,
   30, -8, -73, -42, 85, 27, -12, 111,
   -21, -30, -31, -38, 43, -51, 5, -76,
   14, -3, 79, -77, 99, -56, -44, -8,
   52, 11, -33, -70, -128, -43, 127, -94,
   127, -33, 127, -70, 53, 53, 52, -81,
   35, 15, 101, 52, -106, 76, 67, -67,
   9, -128, 25, -50, -37, -77, -10, 13,
   34, -32, 50, -51, 27, 102, -32, -60,
   -1, -19, 115, -101, -20, -59, 31, -21,
   71, -105, -7, -61, -117, 69, 67, 35,
   -69, -38, 99, -128, 88, -73, -18, -48,
   59, -15, 39, -21, 65, -29, 48, 21,
   96, -121, -87, -19, 48, 6, 63, 3,
   88, 49, 8, -58, 40, 127, 53, -80,
   49, 7, 23, 2, -43, -2, -3, 48,
   -37, -10, 83, 76, 33, -44, -13, 20,
   -32, -16, 24, -10, 70, 33, -39, 91,
   -15, -43, -20, -127, 104, -25, 43, -37,
   106, -92, -25, 22, -23, -57, 109, -7,
   70, -48, 95, -30, -63, -82, -24, -58,
   -64, 0, -3, 44, -63, 67, 2, 0,
   -54, 12, -128, 62, 123, 65, 56, 26,
   41, -27, 12, 33, 53, 46, -10, 123,
   -2, -1, -11, -34, -35, -16, 82, 88,
   -83, -56, -61, -95, -18, 19, 35, 20,
   100, 2, 50, -6, 125, 127, 59, -44,
   108, -30, -27, -25, 63, -23, 1, -82,
   47, -36, 15, -32, -74, -20, 29, 8,
   9, 30, 41, 54, 109, 23, 2, -85,
   -4, 30, 25, -93, -44, -22, 31, 99,
   20, -46, -24, 45, 37, 30, 42, 23,
   44, -35, 34, 86, 33, -48, -15, 41,
   -43, 15, -15, 4, 4, -21, -18, -60,
   52, -14, 127, -81, -74, -51, 29, 23,
   25, -56, 43, -2, 19, -36, -11, -81,
   -19, -4, -18, 27, -59, -2, 0, -26,
   -76, -25, 69, 102, 48, 39, 2, -54,
   -107, 53, -28, 85, -18, -28, 20, 33,
   -18, 17, 52, -63, 99, -56, 85, 66,
   102, -90, -93, 1, 37, 9, 50, 46,
   65, 31, 23, -59, -13, 0, 5, -63,
   8, -19, 93, 15, 25, -36, 127, -1,
   4, -33, -69, -49, 26, 73, 35, 1,
   99, 8, 19, 23, 6, 101, -39, -126,
   -13, 18, -12, 1, 101, -11, 65, -10,
   -22, -32, -57, 27, -38, 41, 72, 23,
   34, -18, 98, -67, 92, 9, 8, -87,
   11, -21, -29, -42, -95, -30, -115, 10,
   0, -8, 92, -9, 95, 31, -41, -30,
   -21, 86, -2, 39, -12, 27, -1, -41,
   22, -75, -16, -69, 17, -31, 37, 24,
   -18, -82, 122, 38, 30, 60, 27, -78,
   -69, 36, 77, 28, -26, -3, -84, 32,
   66, -47, -72, 24, 13, 13, -35, -22,
   52, -33, -43, 11, -34, 33, -51, 105,
   49, -1, 26, 25, -64, -11, 47, -16,
   -22, -36, -102, -49, -14, 11, -87, -62,
   -77, 1, -23, -35, -57, -15, -41, -21,
   -19, -58, -65, 61, -121, -100, -15, -17,
   31, 74, 57, 99, -30, -63, 77, 34,
   -11, -29, 21, 53, 17, 44, -14, 52,
   -45, 47, -48, 51, 100, 41, -77, -63
};

static const rnn_weight input_dense_bias[24] = {
   6, -27, -10, -15, -44, 19, -34, -22,
   -27, -7, 28, -5, -11, -16, 14, -33,
   -9, 27, 8, -10, -19, 11, 19, -4
};

static const DenseLayer input_dense = {
   input_dense_bias,
   input_dense_weights,
   42, 24, ACTIVATION_TANH
};

static const rnn_weight vad_gru_weights[1728] = {
   -71, -49, -123, -80, -95, 35, 39, -43,
   44, -33, -85, -15, -128, -65, 61, -51,
   -49, 72, -96, -81, -103, -128, -96, -39,
   35, 2, 40, -3, 52, -8, -6, -51,
   9, 78, 32, 81, -24, 70, -21, -36,
   -59, -22, 80, 40, -31, 62, 54, 5,
   -6, -19, 35, -47, -30, 63, 41, -48,
   54, -48, 6, 7, 38, 12, -27, -9,
   22, -64, -33, -44, -38, -21, -8, -28,
   76, -5, -22, -7, 14, 127, 17, -47,
   75, 20, 72, 4, -23, 39, -116, 56,
   -25, -25, -10, 59, -25, 25, -2, 33,
   -21, 38, -44, 30, 14, 68, -14, -65,
   -63, 15, 45, 53, -62, -43, 11, 7,
   -16, -52, -45, -6, -48, 9, -59, -2,
   -22, 60, -56, 6, 69, -9, -29, 37,
   14, -24, 18, 28, -6, -48, 8, -43,
   -54, -58, -9, 0, 29, -39, -49, 43,
   -46, 53, 25, 52, 1, -4, -30, 3,
   -43, 39, -10, 49, 34, 60, -128, 19,
   2, -73, -11, -17, -16, -13, 39, -62,
   2, -44, -87, -22, -57, -87, -18, -23,
   -62, -53, 26, -58, -76, -56, -27, -93,
   -82, -50, 32, 32, -27, 3, 17, 26,
   -38, 7, -12, -21, 8, 33, 27, -64,
   -3, -54, 31, -26, 41, 48, -60, -64,
   45, 35, -34, 20, -2, -47, -37, 67,
   -45, 18, -109, 8, -76, -35, 56, -83,
   67, -56, -68, 2, -43, -39, 5, -27,
   -68, 120, -47, -13, -13, -83, -86, 39,
   -11, 2, 66, -36, 31, -17, 22, -23,
   19, -24, -58, 39, 24, 75, -2, 62,
   20, 92, 26, 34, 38, -4, -44, -22,
   30, 36, 15, 34, 3, 36, -1, 43,
   29, -41, -34, -77, 26, 36, 48, -33,
   30, -47, -22, 0, -17, 58, 53, -59,
   9, -63, -7, -4, 3, -4, -86, 45,
   33, 8, 49, 53, 47, 31, -109, 37,
   99, -22, 86, 52, 87, 34, 33, 51,
   21, -23, -6, 13, -26, -57, -19, -31,
   41, -59, -50, 30, -59, -31, -3, -20,
   -75, -99, 6, -26, -22, -41, -57, -93,
   31, 30, -46, -57, -16, -38, -22, -64,
   -34, -36, -51, 21, 41, 71, 13, -8,
   -17, 33, -19, 6, -68, -45, 4, 12,
   -30, -33, -11, -29, 34, -92, -1, 51,
   -34, 38, -74, 5, 23, 45, 100, -45,
   4, 101, -33, 8, -9, -52, -36, -32,
   -14, 66, 83, 28, 14, 5, 78, 72,
   -49, 20, 34, 58, 23, -45, -42, 6,
   17, 78, -11, 32, 69, 40, -41, -18,
   -20, 57, 48, -15, 3, -41, 29, 18,
   -1, -36, -17, 23, -58, -43, 0, 27,
   -54, 16, -15, 22, 57, 60, -11, -37,
   -42, -14, -19, -34, -9, 114, -63, -22,
   37, -28, 41, 5, 22, -36, -60, -11,
   84, -15, 8, -7, 19, -16, -35, 19,
   6, -52, -101, 0, -30, 35, -38, 26,
   -50, -30, 69, 35, -50, -44, 0, -75,
   26, -2, 13, 44, 28, -58, -4, -30,
   9, -24, -13, -27, -7, 38, -47, -23,
   -24, -28, 8, -34, 27, -42, 13, 4,
   36, 3, 41, -43, -62, 43, 18, 36,
   -58, -53, -31, -64, -49, -29, 21, 16,
   21, -34, -49, 28, -74, -2, 42, 7,
   -92, 0, -69, 14, -38, -63, 45, 27,
   78, -15, 15, 45, 0, 47, -8, 57,
   66, 32, 57, -22, 82, 39, -34, 38,
   79, 48, 65, 11, -30, 32, 66, -16,
   -34, 21, -44, 2, 34, 63, 52, -15,
   -14, 27, 18, 21, -26, 12, -17, 24,
   28, -44, 69, -22, -10, -50, -24, 0,
   -110, -30, 13, -5, -48, 52, -10, -30,
   -19, -4, -107, -124, -104, -63, 58, -128,
   -23, 37, -21, -123, -40, 1, 3, -75,
   12, 17, -12, -27, 68, 61, 33, 58,
   -5, 25, 38, 90, 5, 32, 51, 46,
   10, 75, -50, 25, 54, -14, 55, -25,
   -42, 53, -61, -53, 47, 7, -52, -1,
   -42, 11, 28, 29, -58, -24, 35, 38,
   -16, 46, -52, -12, 22, -25, 25, 30,
   35, 47, 17, -6, -74, 50, -16, 35,
   -67, -49, -32, 0, -75, -3, 125, -70,
   -54, 13, 19, 26, -43, -17, 66, -11,
   53, 90, 18, 36, 68, 66, -20, -47,
   25, 48, 66, 121, 47, 33, 24, -66,
   6, -24, 78, 19, 68, 45, -8, 55,
   10, 22, 7, 86, -23, -60, -45, 81,
   87, 3, -118, 28, -37, -25, 57, 40,
   2, 37, 73, 55, 69, 63, 82, -92,
   102, -8, 118, 21, 33, -46, -85, 76,
   -20, 11, -2, 32, -22, -17, -97, 65,
   90, 6, 107, 15, 100, 106, 48, 40,
   -113, 14, -100, -52, -45, -83, -66, -90,
   -61, -23, -18, -83, -41, -14, 3, -82,
   -82, 25, -39, -3, -58, -24, -5, -42,
   -11, -40, -36, -4, -47, 19, 16, -15,
   -36, -24, 13, 58, -60, -40, 48, -8,
   42, 18, 11, 22, 61, 51, 1, -7,
   -43, 15, -32, -2, -24, -79, 3, -23,
   -14, 72, 83, -16, -20, 36, 18, 54,
   9, -8, -42, 17, 8, -7, 70, 30,
   -4, -9, -55, -14, 2, 14, 50, 20,
   14, 30, 41, -64, -49, -61, 36, 36,
   -47, 33, -4, -52, 23, -51, -61, 46,
   7, 39, 26, 52, -46, -42, 52, 17,
   -35, 65, 61, -8, -60, 28, 26, -35,
   12, 63, -1, 20, -36, -50, 4, -44,
   -39, -32, -51, -80, 33, 127, 8, -3,
   31, -71, 65, 64, -43, 28, -23, 6,
   -30, 26, -17, -26, 24, -75, -7, -65,
   30, 21, 49, -18, -63, -1, 25, 24,
   -15, 20, 43, -77, 55, 16, -73, 15,
   -14, 3, 56, 73, -25, -24, 12, -12,
   43, 53, -37, 41, 57, -13, -58, -22,
   -58, 17, 2, -8, -55, 5, 21, -18,
   -55, -17, -6, 13, 13, 3, 51, -50,
   -31, -28, -25, -57, -59, -19, 95, -52,
   35, 39, 23, 19, -60, 24, 87, -91,
   -11, 92, -46, -100, -68, -6, -25, -47,
   -7, -29, -49, -10, 70, -40, -34, -2,
   -6, 46, 6, 45, -32, -18, 58, -24,
   2, 10, -3, 27, -10, -31, 51, -46,
   -51, 17, -59, -38, -34, -3, 62, -61,
   23, -9, 22, -57, 62, 15, 83, -30,
   -11, -60, -29, -23, -21, -38, 27, -9,
   -35, -17, 34, 74, 16, -34, -2, 42,
   -28, 14, -37, 3, 72, 49, -57, 73,
   -3, -115, 28, 77, 82, 81, 7, -21,
   17, 32, -20, 24, -67, 4, 3, 23,
   27, -43, 49, -32, -40, 28, -17, -21,
   42, 10, 1, -58, -9, -60, 22, -59,
   10, -52, -97, -25, 28, -22, 31, -91,
   -41, 20, 28, -44, 39, 98, -48, 17,
   37, -11, 25, -48, -89, -88, -7, -25,
   42, -7, -49, 29, 13, 27, 49, 11,
   44, -26, -70, -40, 16, -80, -76, 50,
   0, -30, -94, -54, -38, -2, -116, -36,
   -5, 42, -66, 17, -24, -13, 16, 45,
   -18, -50, -17, 1, -49, -5, -74, -31,
   10, -24, -14, -1, 48, -56, -20, 53,
   15, -23, -27, 61, -26, 3, -58, -47,
   -35, 6, 43, -57, -14, 35, -3, 52,
   30, -19, 8, -19, 32, 8, 24, 30,
   8, 19, -6, -45, 10, 62, -33, 7,
   19, -46, -44, -57, -28, 44, 56, -66,
   -96, 4, 48, -48, 6, -32, -60, 30,
   64, 12, 44, 42, 65, -6, 77, -15,
   -15, 82, -25, 72, 38, 64, 75, 3,
   37, 78, 27, 25, 80, 69, 104, 77,
   21, -1, -55, -36, -35, -23, 0, -54,
   -33, -79, -7, -39, 73, 84, -52, 27,
   44, -14, -26, -31, 13, -21, -74, 9,
   -12, 28, -61, -87, -41, -29, 15, -89,
   48, -54, -60, -43, -33, -69, 73, -43,
   -107, 56, 4, -50, -101, 13, -10, -88,
   29, 21, 60, 8, 8, 98, 52, 84,
   15, 47, 24, 65, 58, -30, 17, 8,
   16, 31, 25, 80, -14, 89, 45, 19,
   29, -52, -16, 11, 45, 19, -51, 3,
   -13, 11, -7, 21, -3, -27, 57, 60,
   -11, -37, -52, 23, -6, 37, 52, 40,
   -2, 50, 118, -18, -15, -72, -16, 44,
   1, -2, -9, 19, -2, 21, -17, -45,
   -14, -78, 19, 27, 28, 76, 40, 39,
   -13, 22, -36, 35, 0, -36, 0, 67,
   19, 15, -49, -52, 30, -27, 1, 35,
   12, -25, -54, 5, 2, -6, -28, -43,
   -57, 14, -8, 10, 54, 6, 11, -35,
   25, 34, 56, -53, 26, 25, 13, -76,
   12, 39, -48, -37, -46, -19, 23, 24,
   -10, -19, -17, -4, 43, -1, 19, 79,
   -19, 10, -33, -7, 48, 45, 83, 74,
   10, -53, 36, -23, 39, 39, 29, 11,
   0, 28, 25, -53, -11, -11, -59, 14,
   10, -42, 21, -24, -11, 29, -54, 38,
   -43, -31, -34, -67, -24, 17, 4, 38,
   0, 8, -48, -24, 2, -22, 16, 28,
   3, 20, -50, 1, -47, -13, 50, 32,
   -64, 50, -49, -30, 52, 23, -36, 27,
   72, 28, 24, -30, 45, -37, -56, 5,
   -59, -36, -19, -54, 7, 61, -7, 34,
   30, -80, 2, 67, 46, 34, -7, -2,
   -73, 72, -26, -24, -12, 18, -43, 7,
   15, 45, -42, 43, -64, 15, 1, 32,
   29, 8, 20, 23, 10, -72, -51, -51,
   -16, -39, -1, -51, 59, 68, 44, 50,
   0, -19, 55, -48, 18, -36, -19, -37,
   40, 1, 21, -33, 5, -31, -12, -43,
   -38, -15, -54, -68, -57, -12, -19, -75,
   -27, -57, -44, -100, -18, -117, -17, 22,
   -21, -10, -32, 36, -96, -61, -106, -48,
   12, 46, -10, 67, -32, 97, 42, -30,
   72, 40, 27, 55, 34, 74, 68, 21,
   24, 25, 40, -33, 54, 67, 44, 68,
   -32, 27, 10, -32, 46, 71, 46, 16,
   13, -44, 13, -54, 7, 31, -33, -33,
   25, 35, -46, -45, -29, 15, -12, 30,
   4, 17, 47, -52, -58, -59, -18, -23,
   -17, -62, -55, -72, -19, -22, 21, 39,
   41, 86, 19, 11, -40, -21, 57, -11,
   27, -23, -24, 8, -4, 15, -24, -18,
   -20, 42, -4, -38, -5, 23, 20, 57,
   79, 102, 20, -66, 23, 25, -21, 50,
   31, -49, -11, 44, 19, 3, 59, -18,
   36, 6, -3, -66, 23, -36, 25, 7,
   48, 36, 12, -15, -24, -21, -42, 52,
   75, -19, -6, -34, 92, 41, -35, 24,
   -22, 33, 76, 54, 46, 127, 34, 74,
   -3, 64, -42, 99, -3, 88, 28, 105,
   -21, -60, -39, -37, -74, -23, 17, 12,
   -11, 11, 3, -49, 35, 18, -20, -9,
   -13, 32, -39, 17, 3, 43, 15, 22,
   99, 30, 56, 68, 12, -37, -26, 85,
   40, 43, -55, 6, -37, -5, 19, 89,
   -78, -35, 73, 22, 55, 33, 27, -26
};

static const rnn_weight vad_gru_recurrent_weights[1728] = {
   -19, -41, 57, -15, 41, -43, -30, 57,
   11, -27, 13, 41, 16, -22, -11, 27,
   92, -14, -36, -19, 69, 60, 91, 49,
   -56, 80, -30, 5, -6, -3, -15, 17,
   -46, -32, 23, -28, -6, 34, -44, -119,
   -75, 12, 13, -51, -33, -74, -2, -40,
   23, -24, -18, -18, -44, -41, -26, 31,
   -12, 58, 36, 29, 13, -32, -3, 10,
   -27, -4, -27, 14, 9, 56, 26, 13,
   47, 13, 17, 18, 16, 61, -73, 23,
   -19, 54, 48, -35, 2, -87, 47, 32,
   13, -4, 50, 8, -12, -43, 23, 65,
   27, -9, -15, 9, 7, -48, -6, 12,
   -9, 46, -4, 58, 12, 15, 34, 13,
   -15, 13, 1, -17, 11, 32, 9, -10,
   -5, 71, -102, 3, 32, -20, -27, -2,
   -23, 41, 5, -17, -13, -40, 84, -32,
   -7, -19, -38, -12, 9, -45, -29, -3,
   -59, -75, 47, -14, -12, -29, -21, 26,
   -70, -24, -51, 13, 6, 50, 18, -68,
   -8, 29, 0, 5, -26, 30, 19, -9,
   22, -4, 81, 35, 1, -2, 49, -19,
   27, 32, -8, -6, 49, 14, 7, -67,
   -5, 6, 59, -43, -27, 6, -34, 47,
   85, 5, 41, 92, 14, -55, -26, 52,
   3, -22, -31, 60, -88, -67, 22, 77,
   -77, -38, 67, 59, 2, 106, 127, -44,
   -4, -29, 35, 37, -20, 12, -53, 9,
   26, 6, 69, -7, 14, 48, -40, 46,
   63, 22, 26, 53, 34, 57, 127, 80,
   -40, -12, -27, -24, 38, 49, 52, -58,
   46, 7, -29, -34, -34, -43, -22, -41,
   -13, 46, 46, -65, 21, -28, -38, -23,
   1, 1, 22, 15, -65, -46, 16, 39,
   85, 32, -12, 35, -30, -80, 28, 54,
   -51, 31, -2, 73, 105, 47, 71, -75,
   -40, 67, -64, -39, -49, 36, 110, -21,
   -30, 111, -22, -29, 2, -37, 103, -32,
   -58, 63, 31, -4, -71, -28, -48, 55,
   33, 13, 65, 1, 56, -11, -12, 30,
   -3, 53, -46, 76, 33, 38, 11, 16,
   45, 5, 26, 40, 64, 51, 23, 14,
   -52, -60, 13, -22, 17, 37, -40, -54,
   -17, -50, 19, -15, 3, -1, -2, -37,
   44, 11, 3, -11, -74, 19, -37, 26,
   -33, 36, -53, -42, 28, 46, 107, -75,
   52, -5, -112, -12, -9, -53, 32, -45,
   -71, 34, 65, -27, 42, -53, -84, 41,
   12, -4, 53, 25, 0, 11, -21, 43,
   23, 61, 37, -1, 16, 38, -18, 35,
   -29, -61, 29, 38, 5, 35, 29, 48,
   7, -6, 16, 0, 0, 0, -27, -3,
   0, -15, -25, -31, -41, -28, -51, -17,
   -8, 26, 26, 27, 38, 15, -13, -53,
   51, -9, 73, 66, 22, -84, 14, 28,
   -77, 65, -13, 31, 120, 8, 58, -8,
   9, -46, 72, 6, 58, -2, 31, 24,
   -16, 50, 35, -63, -20, 17, 39, -15,
   -5, 6, -6, 0, -57, 4, 21, -47,
   -19, 39, 37, 15, 24, 10, -52, -5,
   49, -2, -7, -9, 47, -27, 54, -54,
   17, -11, -32, -18, 30, 6, -32, -89,
   49, 25, 14, -8, -11, -2, -24, 4,
   6, -32, 51, 9, -54, -9, -63, 21,
   33, -56, -14, -26, -65, -9, -22, -34,
   13, -8, -35, -2, -17, 37, 106, -44,
   23, -3, -1, -19, -2, 48, -51, 23,
   22, -23, -10, 36, -25, 52, 15, -31,
   15, -28, 91, -8, -46, 38, 35, 9,
   91, 7, 112, 47, -41, -44, -53, 49,
   52, 62, -90, 72, -9, -58, 25, 14,
   -15, -22, -28, 24, 61, 79, 69, -66,
   -49, -63, -45, -30, -68, -11, -39, -33,
   -98, -17, -42, -92, -6, -41, 58, 23,
   -33, 60, -15, 5, -25, -17, 47, -23,
   53, 56, 68, 29, -6, 54, 47, 7,
   -16, -8, -36, 2, 45, 33, 16, 20,
   25, 41, -3, 25, 11, 65, -46, 67,
   34, 22, 40, -51, 49, 70, -10, -34,
   -16, 7, 28, 0, -38, -46, -28, -40,
   0, -34, 0, -20, 14, -14, -66, 6,
   -12, 28, 45, 6, 13, -34, -54, 76,
   -27, -15, 12, 19, 80, 13, -53, 59,
   29, -18, 28, 51, 44, 58, 127, 37,
   -6, 29, -11, 29, -25, -15, 30, 30,
   -1, 4, -58, -85, 23, 41, -52, 1,
   -28, 25, -40, 3, 24, 62, 27, -4,
   20, 28, -64, 98, -8, -6, 24, -12,
   58, -5, -50, 22, 15, 22, 11, -31,
   20, 29, -29, -22, -46, -29, 42, 37,
   31, 82, 5, 4, 97, 93, 45, -6,
   12, 108, 20, 76, 0, 28, -35, 24,
   74, -65, 36, 26, -37, -53, -48, 66,
   -41, -47, -20, -43, 55, -34, -54, -30,
   5, -24, 22, -56, -53, -4, 23, 32,
   41, -10, -21, 11, -84, -14, -48, -1,
   -36, -18, 19, 10, 36, 25, 42, 52,
   -62, 17, 39, -12, -11, 22, -73, -68,
   -41, 38, -49, 27, -27, 0, -19, 75,
   13, -47, -6, -43, 23, -101, -51, -42,
   -44, -44, -16, -33, -19, -22, -46, -84,
   -44, 12, -25, 8, -28, 49, 57, -35,
   -12, 36, 63, 10, -13, -15, 4, 53,
   -23, -15, -10, -13, -9, -5, -21, -9,
   53, -23, 3, -14, -4, 24, 23, 33,
   -63, 13, -25, -77, 7, -43, -5, 46,
   13, -22, -72, 10, -16, -16, -4, -1,
   14, 5, 43, 1, 39, -6, 42, -17,
   27, 33, -54, -91, 8, -44, -12, -122,
   -6, 29, -24, -14, -72, -93, -2, 19,
   -58, 52, -26, -42, -17, -128, -108, -27,
   44, -14, -22, 34, -19, 10, 26, 30,
   19, -6, -16, 43, 33, 19, 31, 24,
   9, -19, -30, -35, 50, 7, 22, -25,
   -128, 26, -26, -64, 127, 64, 12, -55,
   -42, -21, -4, -80, 71, 92, 21, -81,
   91, 78, -76, -98, -58, -30, -11, 104,
   -8, 57, -71, 30, -17, 32, 87, 49,
   -19, 47, 24, 17, 3, 25, 46, 65,
   22, -107, -34, 3, 36, 2, -103, 70,
   20, -1, -14, 28, -10, 9, -27, 18,
   67, -5, 10, 3, -51, 3, 14, 55,
   43, 11, -45, -33, -21, 40, 26, 9,
   -69, -2, -39, -51, 10, 89, 25, -46,
   -73, -12, -1, -39, 2, 13, -2, -95,
   29, 88, 43, -69, -28, -7, -52, 26,
   41, 14, -77, -1, -17, -57, -75, -16,
   -3, 38, 15, -28, 98, 79, -11, -40,
   30, 63, 29, 11, 31, -13, 60, 66,
   -39, -17, 20, 69, 26, 38, 41, 115,
   -17, 19, 1, -38, 67, 20, 61, 13,
   2, 49, 47, 41, 26, 42, 39, 32,
   -45, 39, -60, -54, 18, 47, -23, -51,
   40, 27, -45, 21, 127, 46, 66, -15,
   37, 73, -19, 65, -80, -40, -31, 25,
   -100, -69, 34, -68, -74, -9, -30, -63,
   -9, -83, -92, -75, -43, -27, 33, 24,
   -68, 85, -4, -33, -19, -36, 21, -20,
   29, 7, 74, -34, 43, 58, -2, 66,
   2, -35, -24, 56, -19, -16, 28, 28,
   1, 51, 6, 7, -43, 8, 29, 49,
   47, 32, -44, 26, -31, -4, -28, 4,
   56, 7, -16, 15, 39, 51, 59, -18,
   -18, -28, 85, -9, 29, -24, 49, -4,
   22, 52, -11, -32, 16, 25, 67, -44,
   -86, 97, 23, 25, 4, -16, 33, -61,
   3, -31, 38, 30, -3, -11, -54, -7,
   53, 12, 46, 57, -13, 18, -3, 60,
   -30, -35, 28, 11, -14, 35, 44, 17,
   42, 20, -25, 0, 0, -27, 73, 58,
   -9, 18, 32, -22, -4, 88, 53, -55,
   5, -23, 70, -72, 8, 1, 13, -8,
   68, 37, -3, -1, -31, -53, -5, -24,
   -2, 34, -30, 7, 12, -127, 30, -37,
   -33, -44, -74, -1, -19, -31, 55, -28,
   -37, 126, -38, -32, -10, 38, 39, -30,
   33, 15, 62, 13, 49, 48, -78, 30,
   18, 24, -15, -11, -9, -24, 90, -22,
   -8, 70, -61, -10, -41, 22, -93, -36,
   -5, 69, -94, -31, 1, 7, 89, -69,
   -27, -37, 20, -9, 58, 28, 46, -28,
   34, 92, -115, 13, 5, 6, -43, -10,
   90, -6, 106, 27, 9, 89, -7, 57,
   45, -2, 13, 65, 64, 114, -66, 71,
   -18, -19, 4, 34, 16, 64, -2, 51,
   -30, 22, -6, -2, -16, -6, -48, 0,
   -22, -29, -44, 19, 19, -14, -18, -5,
   8, 25, -28, 63, 31, -17, 36, -19,
   0, -31, 36, 62, -29, -16, 1, 10,
   14, 21, -59, 24, -39, -44, 21, -14,
   -28, -31, -27, 73, 7, 1, 33, -95,
   -26, -56, -29, 46, 23, -113, -90, 39,
   -22, -36, 88, 78, 32, 54, -25, 38,
   10, -42, 17, -12, 14, 29, 127, -6,
   -23, 10, 9, 4, -16, 10, 11, 31,
   -11, 7, -47, -8, 41, -15, -8, 3,
   -47, -18, -7, -15, -86, -88, -42, -103,
   21, 45, 2, 27, -23, -98, -16, -40,
   48, 49, -44, 64, -9, -20, 15, 36,
   4, -4, -8, 47, 73, -7, 15, 29,
   -29, -12, 6, -14, -60, -74, -56, 9,
   -11, -77, -63, 2, 22, -19, -8, -21,
   -11, 31, -30, -59, -2, -38, 65, -43,
   -9, 36, 11, 14, -7, -55, 46, -14,
   43, -53, 16, -11, -13, -10, 4, 23,
   39, -18, 94, -45, -43, -5, -10, -46,
   20, 61, 17, 22, -61, -119, 3, 14,
   56, 13, 17, 48, 16, -56, -19, 9,
   -84, -54, -10, 38, -9, 16, 58, -56,
   -117, -75, 20, -76, -68, -71, 3, 6,
   21, -55, -51, -70, -3, -36, -41, -39,
   -80, 62, -16, -63, -71, 19, 33, -115,
   0, -24, 19, -93, -47, -20, 62, 44,
   24, 39, 69, -5, 22, -31, 7, -34,
   -34, 68, 75, -41, -62, 54, 17, -36,
   38, 38, 52, 14, -11, -43, -13, 27,
   47, 69, -58, 19, -47, -54, 48, 62,
   -20, -46, -20, 84, 21, 13, 45, -60,
   -114, -67, 10, -1, -62, -3, -23, -77,
   2, -42, -69, -73, -47, -99, -26, -54,
   -25, 15, -81, -48, -43, -53, -48, -118,
   -27, -16, 44, 64, -9, -8, 25, 40,
   -5, 54, -49, 2, -35, -3, 27, 5,
   15, 6, 3, 78, 4, 61, 26, 9,
   -32, -5, 48, 25, 10, -47, -10, -24,
   83, 41, 5, 81, -17, -18, 40, 84,
   -29, -42, 39, 38, 12, 48, 82, -22,
   58, 32, -6, 38, 75, 91, 25, 15,
   46, 59, -1, 51, 65, -17, 1, 37,
   -40, -52, -41, -29, -24, -29, -43, 89,
   2, -28, 30, 35, 54, 2, -20, 0,
   -52, 23, 5, -1, -25, -35, -11, -20,
   40, 14, -10, -15, -24, 19, 14, 19,
   -63, -43, -42, -22, 41, 68, 42, -39,
   -50, -60, 43, -14, 31, -20, -29, -43,
   115, -13, -26, -56, -11, -38, 33, 47
};

static const rnn_weight vad_gru_bias[144] = {
   -63, -6, -80, -104, -76, 26, 38, -93,
   -49, 1, -128, -126, -91, -96, 101, -117,
   -111, 44, -79, -109, -101, -94, -81, -73,
   76, 21, 48, 25, 32, 63, 24, 29,
   61, 30, 32, 75, 26, 56, 30, 51,
   24, 34, 11, 48, 24, 48, 56, 53,
   -8, -7, -4, -6, 11, 18, -3, -8,
   -5, -18, 16, -21, 5, 5, -2, -12,
   10, 1, -6, -5, -3, -10, -7, 7,
   -63, -6, -80, -104, -76, 26, 38, -93,
   -49, 1, -128, -126, -91, -96, 101, -117,
   -111, 44, -79, -109, -101, -94, -81, -73,
   76, 21, 48, 25, 32, 63, 24, 29,
   61, 30, 32, 75, 26, 56, 30, 51,
   24, 34, 11, 48, 24, 48, 56, 53,
   -16, -7, -4, -7, 11, 19, -3, -10,
   -8, -19, 19, -24, 2, 7, 2, -21,
   13, 3, 2, -8, -6, -8, -14, 7
};

static const GRULayer vad_gru = {
   vad_gru_bias,
   vad_gru_weights,
   vad_gru_recurrent_weights,
   24, 24.0, ACTIVATION_TANH
};

static const rnn_weight noise_gru_weights[12960] = {
   -8, -13, 9, 3, -15, -8, 19, -45,
   8, -39, -31, 27, 30, -14, -41, -42,
   23, 25, -6, -18, -11, -21, 19, 50,
   33, 17, -27, -41, 50, 1, 3, 47,
   -44, -15, 16, -26, 38, 8, 16, 19,
   -31, 22, -38, 1, 1, -17, -43, 10,
   -16, -36, 1, -36, 29, -51, 33, -37,
   -12, -13, 32, -3, -37, -38, 24, 30,
   -21, 8, 18, 0, -48, -41, 25, 41,
   8, 14, -24, 1, -19, 36, 11, 7,
   14, -43, 39, 25, -40, 13, -34, -33,
   -37, -30, -17, 10, 26, -25, -3, -18,
   7, 7, -13, -19, -34, -11, -5, 1,
   -17, 25, -18, 13, -28, -18, 0, 5,
   -10, 19, 13, -20, 45, -9, 10, 19,
   4, -4, 6, 7, -39, -4, -10, -31,
   9, -39, -9, 6, -51, -19, 28, 17,
   -36, 14, 11, -6, -27, -18, 10, -12,
   -24, -12, 2, 53, 22, -19, -27, 25,
   5, -3, 7, -15, 18, 25, 24, 29,
   15, -22, -7, -36, 17, -5, -4, -21,
   -21, 37, -13, 6, -32, 3, -54, 24,
   -9, 4, 22, -29, 28, 36, -34, 19,
   18, -13, 26, 13, -23, -51, -17, 4,
   -67, -42, 8, -4, 39, -21, 15, 16,
   -26, 15, -4, -8, 34, -34, -39, 24,
   15, -15, 18, 28, -34, -2, -7, -34,
   -6, 7, 6, 7, -7, 40, 18, -39,
   18, -37, -13, 16, -18, -8, -33, -12,
   26, -23, -42, 42, -15, 36, -36, 7,
   3, 9, 45, 25, -36, 6, -31, 38,
   30, 23, -19, 6, -36, 11, 12, -28,
   34, 8, -29, 37, -10, 40, 11, -28,
   23, 37, 15, 19, 3, -19, 0, -27,
   -6, -28, 32, -6, 11, 29, -13, 18,
   30, -2, 16, -12, -1, -22, 27, 44,
   7, 41, -28, 14, 9, -38, 12, 9,
   -31, 15, -29, -2, -7, -4, -9, -12,
   9, 18, -14, 28, 5, -20, 21, -37,
   -32, 46, 10, -27, 9, -19, -10, -39,
   19, 10, -33, -48, 33, -6, 40, -23,
   6, 34, -4, 14, -43, 0, 34, -4,
   -1, -25, -30, -2, -48, 1, -28, 10,
   1, 37, -32, -44, -3, 3, 7, -16,
   -43, 33, 35, 20, -10, 22, -22, 14,
   39, 20, -40, 29, 36, 31, 26, 33,
   -37, -21, 48, -18, 27, -35, -2, 35,
   29, -29, -21, 33, -19, -25, -46, 0,
   -5, 11, -15, -4, 3, -35, -22, 13,
   -1, 13, -18, -20, 17, -6, 24, 13,
   11, -17, -10, 37, 38, 34, 32, 4,
   2, -2, -13, -13, -10, -22, -6, -24,
   -4, -35, -4, -6, -35, 14, -6, -15,
   42, 29, -40, -31, 25, 43, -6, 30,
   2, -16, -15, -6, 15, 9, -21, 4,
   29, -45, 52, 27, -24, 13, 17, 16,
   -5, -67, 4, 24, 17, 2, -2, 29,
   -36, -24, 2, 14, -5, 35, 46, 12,
   12, 44, 6, -19, -40, -21, -30, 10,
   -5, 42, -5, -23, -19, 33, -33, -30,
   -17, 23, 21, -11, 26, -21, 20, -46,
   20, 13, -4, -33, -10, -45, 5, -16,
   -4, -36, -16, -10, 39, 44, 46, 20,
   26, 9, 48, 61, 27, -2, 20, -12,
   11, -25, 2, 41, 3, -21, 13, -12,
   45, -29, -62, -68, -37, -13, 14, 9,
   -20, -13, 23, 3, -19, -5, 40, 38,
   31, -6, -33, 45, 34, 45, 28, -16,
   -24, -14, -41, -13, -34, 6, -15, -27,
   -38, -16, -13, 62, -16, -13, 35, -48,
   -31, -42, -14, -18, 44, -8, 2, 0,
   13, 57, -12, 46, 28, -33, 16, -1,
   -23, 8, -6, 21, 1, -8, -35, 36,
   -42, 23, 18, 14, 12, 37, -9, 9,
   47, 17, 32, 33, -13, -2, -25, -12,
   -17, 36, -30, 9, 14, -36, 16, 6,
   -38, -23, -31, -7, 29, -34, -25, 57,
   17, -23, -8, 52, -23, -15, 27, 13,
   -16, -24, 3, -29, 24, 21, 39, 21,
   -23, -29, 17, 0, -2, 14, -2, 18,
   -3, 19, -24, -35, -25, 1, 43, 23,
   -8, 8, 3, -19, 4, 12, -22, -25,
   49, -31, 24, -9, 14, -37, 30, 35,
   -7, -38, -19, 46, 38, 14, -12, 20,
   -32, 16, 25, 10, 2, -7, -29, -25,
   -14, 38, 0, 34, -48, 6, 22, -15,
   -2, 8, 37, -29, 21, 32, 12, -19,
   -17, -11, 27, -38, -34, 25, 1, 27,
   -39, 46, -15, -42, 2, -19, -21, -21,
   24, -28, -29, -44, -41, 6, -1, -6,
   -37, -4, -4, 20, 29, -36, 2, -38,
   0, -27, -34, -27, 1, 35, -37, 27,
   1, 46, -44, -24, -33, -19, 28, -31,
   -17, 32, -14, 45, -35, -19, 48, 2,
   -13, 20, 6, 3, -24, -15, 33, 13,
   27, -24, -52, -11, 5, 18, 9, 31,
   0, 5, 39, -16, -40, 11, 22, -6,
   -12, -16, 4, 15, 34, -12, -28, -29,
   27, 27, 32, -19, 45, -2, -3, 13,
   -36, 37, 6, -10, 37, 23, 30, 28,
   17, 57, 13, 13, -9, 13, -21, 32,
   -8, 4, -15, 14, -50, -17, -33, 28,
   -12, 21, 14, 11, 14, -6, -26, -25,
   -1, -19, 15, -20, 18, 39, -28, 14,
   22, 17, -31, 26, 22, -17, 37, -28,
   -15, 23, -7, -23, -16, 7, 24, 10,
   -22, 41, 43, 10, -10, 31, 8, 45,
   -27, -15, 44, 29, 19, -5, 19, 25,
   29, 30, -33, -18, -21, -23, -12, 17,
   16, 33, 30, 36, -8, -7, -5, -11,
   -22, -34, -11, 30, 32, -44, 20, -19,
   3, -10, 30, -20, 31, -34, 5, 8,
   23, -14, -4, -17, 27, -38, 43, 23,
   3, 4, -7, -32, -51, 23, 26, 20,
   -43, -46, -23, 17, 25, 30, 33, 14,
   -15, 12, -48, -44, -42, 21, -12, -20,
   -1, -24, 47, 38, 13, 12, 25, 17,
   -2, -40, 1, 6, 31, 14, -30, -24,
   13, -39, 60, 14, -19, 11, -34, 17,
   -5, -15, 0, 14, 42, -28, -24, -25,
   26, 6, 16, 32, 26, 8, 15, 21,
   -30, 35, 25, -27, -31, 30, -16, -3,
   -30, 21, -35, -27, -13, -29, 5, -11,
   12, -39, 27, -22, -13, 43, 24, -20,
   -13, 9, 12, -20, 29, -13, -19, -33,
   18, -21, -20, 10, -26, -25, 29, -11,
   -26, 7, 19, -14, 42, 4, -19, -27,
   -26, 21, 56, -1, 37, 20, 20, 0,
   -18, -28, -41, -35, -24, 22, 1, 19,
   -2, 18, -12, 0, 19, 23, -8, 8,
   -24, -27, 19, 39, 4, -21, 21, 20,
   14, -15, -17, -19, -9, 27, 29, -21,
   27, 13, 0, -6, 46, -20, 23, -32,
   24, -14, 33, 11, -32, -27, -4, 28,
   25, -18, -44, 24, 41, -5, -9, 15,
   10, 8, 18, -6, 16, 25, -41, -38,
   13, 3, -23, -11, -19, -12, -34, 27,
   31, -16, 30, -24, 10, -8, -15, 44,
   12, 0, 10, 1, 8, 14, 8, 44,
   -35, -24, 11, -28, -36, -10, 21, -30,
   40, -15, -1, 31, 18, 6, -13, 26,
   20, 7, -23, -24, 40, 1, 12, 0,
   25, 32, -18, 20, -17, -42, 40, 2,
   1, 20, -9, 29, -10, 12, 3, -26,
   -21, -27, -13, -7, 41, 50, -30, 4,
   14, 8, -38, 33, 19, -26, -16, -13,
   -23, 15, 16, 10, 50, 24, 33, 15,
   4, -35, 2, -15, -28, 31, 20, 14,
   -23, 12, 44, 6, 29, 45, 23, -28,
   -47, 13, -14, 13, 50, 14, 31, -41,
   -43, 29, -25, 10, 25, 14, -34, 6,
   24, 1, -15, 10, -23, 21, 21, 31,
   -12, 11, -26, -13, -10, -8, 24, -9,
   -3, 7, -32, 24, 12, 12, 30, 33,
   35, 18, 44, 8, -36, 20, 9, 18,
   -42, 5, -18, -2, 13, 30, -1, 41,
   16, 28, -30, -4, -31, -29, -1, -28,
   2, 25, 8, -41, 17, 43, -14, 30,
   -33, 23, -5, -22, -2, -27, -33, 16,
   13, -41, -35, 39, 13, -23, 42, -13,
   -29, 30, 22, 35, -37, -32, -26, -16,
   27, -19, 9, 6, 13, -12, 40, 25,
   -3, 34, -7, -20, -42, 71, -15, -11,
   -40, 1, -39, 34, 20, -10, 30, 4,
   24, 1, 0, -14, 54, 47, 26, 7,
   -13, -32, 29, 34, -7, -24, -60, 9,
   53, -38, 15, 13, -54, 22, -9, 19,
   38, -13, 8, 41, 39, -30, 4, 51,
   -36, -24, 18, -29, -28, -14, 22, -25,
   48, -7, 9, 28, -20, -12, -16, 0,
   33, -25, -15, -13, 21, -20, -15, 0,
   -30, 46, -51, 8, -41, 1, 19, -33,
   -13, 1, -28, 42, -67, -5, 12, 49,
   6, -41, -39, 20, -16, -6, -31, 27,
   -1, -10, 9, 42, 16, -33, -10, -25,
   27, -34, -30, -15, -37, 10, -8, -10,
   -2, -46, 0, 7, -21, -1, -7, 43,
   -41, 46, 2, -11, 13, 20, -40, 24,
   6, -3, -32, 40, 22, 13, -31, -59,
   27, 9, -8, 33, -24, -34, -11, -4,
   -28, 14, -8, -45, -31, 26, -12, -13,
   -23, -44, 28, -15, -7, 17, 16, 30,
   24, 31, -15, -47, -52, -47, -60, -18,
   9, -6, -27, 23, 4, -17, 16, 9,
   -27, -32, -18, -43, -27, 29, 37, 27,
   29, -51, 68, 10, -4, 11, -7, -45,
   32, -31, -25, 17, -29, 27, 36, 20,
   -5, 16, -31, -1, 6, 30, -6, -8,
   -33, -20, -34, -32, 24, -11, 27, -32,
   -15, 8, 6, -27, 41, 2, -10, 40,
   -32, -32, 23, 24, 21, -38, -1, 42,
   3, 33, 20, -22, -3, 16, 33, -2,
   -23, 36, -24, -35, -41, -10, -35, -30,
   -31, -20, -45, -19, -28, -33, -7, -11,
   17, -21, 11, -23, -36, 3, 24, -15,
   21, 34, 11, 33, -3, 12, -7, 12,
   -44, 1, 37, -22, -27, 35, 5, 28,
   18, -25, -25, -5, -41, -29, -47, -12,
   1, -37, -7, 17, 0, -48, 15, -29,
   12, -38, 16, 28, 12, -65, 21, 28,
   -40, 11, 30, -13, 24, -34, -9, -20,
   -13, 37, -40, -4, -17, -13, 30, 14,
   30, 29, -19, -30, 24, 27, 34, 0,
   4, -28, 16, -50, 36, -8, 27, 28,
   56, -13, -12, 8, 8, -49, -31, -16,
   -1, -9, 17, 17, 14, -2, 21, 7,
   21, 4, 11, 2, 22, 32, -9, -26,
   0, -47, -23, -28, -31, 12, -20, -21,
   -21, 36, -36, 15, -34, -28, 14, 25,
   31, 29, -7, 9, 30, -29, -1, -39,
   -7, -15, -8, 32, -33, -18, -4, -26,
   -36, -18, -40, -28, -9, 9, -3, -4,
   15, -2, -51, 18, -26, 24, 12, -7,
   38, -13, -17, 19, -34, 18, -28, 10,
   -11, 12, -29, -50, -7, 42, -5, 24,
   37, 26, -17, 4, 8, -43, 15, 27,
   20, 44, -52, 0, 31, -2, -36, -21,
   9, 14, -2, 17, 12, 9, -12, -36,
   -12, -48, 31, -7, 7, 29, -30, 29,
   55, 8, -19, 32, 46, 8, 33, 37,
   -18, 13, 7, 28, 14, -6, -56, 44,
   31, 23, 2, -7, -10, -41, -12, -4,
   -7, 24, -16, 26, -40, 20, -38, -8,
   7, -7, -9, -26, -25, 38, 30, 49,
   18, -13, -14, 37, 1, 37, 22, 12,
   26, 34, -31, 4, 20, 9, -20, 39,
   -33, 22, 41, -1, -33, 23, 5, -10,
   31, 19, -10, 32, 31, 45, 32, 36,
   -32, -14, 35, -29, -42, 22, -44, 1,
   -12, 23, 22, -15, -32, -8, -3, -5,
   19, 0, 3, 38, 27, -22, 31, 16,
   -15, 8, -36, -40, -33, -12, 36, 14,
   2, 34, -3, -10, 19, 34, -9, -36,
   39, 19, 20, 3, 25, 37, 15, 22,
   -17, -39, 23, 23, 49, 2, -29, -1,
   24, -4, 45, 7, 50, 12, 33, -19,
   -2, -39, 12, -21, -28, 32, -33, 35,
   -21, -13, 17, -25, -39, 13, 22, 14,
   -31, 40, 34, 7, 26, 18, -32, -34,
   25, -15, 6, 36, 27, 7, 20, 20,
   -56, 37, -20, 14, 35, 7, -26, 5,
   -24, -19, 35, -34, 18, -38, 3, -42,
   -19, 34, -33, 14, 24, 22, -16, 24,
   -17, -13, 10, 9, -32, 9, -18, 27,
   0, 10, -19, -17, 2, 4, 12, -35,
   45, -24, 30, -43, 16, -1, -42, -10,
   -12, -27, 20, 16, -37, 27, -22, 20,
   41, -6, 34, -17, 6, 25, 12, -5,
   -27, -12, 8, -20, 26, -5, 0, -42,
   41, -28, -9, 50, 14, 12, -24, 31,
   27, 42, 31, -13, 1, -12, -16, -17,
   -3, 1, -26, 27, 17, -6, 28, 20,
   23, 26, 35, -15, 11, -8, -1, -28,
   24, -12, -44, -31, -13, -56, 48, -16,
   54, -23, -42, -5, 17, 17, -8, 39,
   -38, -19, 34, 12, 40, -13, 7, 24,
   -31, -31, -28, 1, 30, 32, 6, 10,
   48, -23, 18, -22, 16, -27, -10, -26,
   15, -7, -31, 30, -30, -3, -12, 12,
   33, -5, -33, -32, -47, 12, -47, 54,
   -4, -18, 56, -18, -54, 28, 1, -17,
   12, 8, 30, 28, -26, -29, -23, -23,
   35, -42, 37, 10, -11, -11, 10, -32,
   -3, -39, 52, -16, -18, 45, -35, -27,
   41, 27, -19, -16, -22, -31, -39, -22,
   7, -35, 18, -3, 35, -32, -41, 30,
   0, -44, -16, 5, -1, 25, -61, 13,
   3, 11, -32, -20, -31, -5, -35, 41,
   -30, 44, 13, 36, 28, -22, -30, 27,
   -34, 13, -12, -18, 35, -30, 14, 22,
   31, 34, -27, -24, -28, 40, 37, 25,
   -9, 3, 7, 11, -20, 13, 19, -20,
   -5, -12, -13, -42, 31, -40, -35, -21,
   -1, 27, 28, 36, 29, -11, -51, -19,
   -7, -16, -13, -11, 19, 26, 2, -7,
   8, 31, 29, 6, 14, 11, 7, -6,
   -11, -43, 7, 2, -44, 34, 14, -12,
   -36, 40, -37, -29, -41, 11, -36, 12,
   -18, 20, -26, -22, -18, 36, -4, 22,
   -13, -19, 6, 26, 24, 33, 9, -3,
   -3, -19, 59, -10, -22, -33, -64, -11,
   -22, -22, -32, 40, 31, 6, -14, -17,
   -42, -22, 30, -42, -16, -44, 29, 1,
   28, 33, 46, -22, -32, -34, 13, -26,
   10, 26, 15, 17, 0, -16, 13, -2,
   41, 28, -16, -15, 12, 8, -9, 43,
   -29, -4, -7, -29, -4, -24, -19, -14,
   -7, 11, 15, -30, -14, 24, 32, -24,
   -20, -4, 33, 22, -15, -19, 13, -36,
   18, -23, -6, -22, -26, -28, 26, -49,
   -8, 5, 2, -1, 32, -4, -3, -34,
   42, -14, 38, -35, -15, 30, 34, 3,
   26, -28, 4, 40, -9, 22, 19, 5,
   21, 4, -58, 27, -23, 2, 21, -18,
   -53, -29, 35, -27, -15, -32, 5, 17,
   3, 29, -20, -34, -6, 31, 39, -3,
   -34, 36, 9, -20, -20, -4, -22, -33,
   28, -3, 23, -36, 36, 32, 12, -14,
   43, 16, -32, -49, 45, 11, 11, -16,
   -30, 24, 12, 8, -4, 5, -7, 5,
   20, 0, 42, 10, 25, 40, -33, -12,
   -29, 21, 2, 31, 23, 52, -16, -5,
   -36, -7, -10, -31, -10, -30, 31, 39,
   27, 10, 26, -17, -38, -27, 39, -2,
   8, 20, -5, 44, -46, -36, -6, 3,
   12, -5, -27, 5, 27, -35, 49, -32,
   23, 0, 19, -3, 1, -27, -3, 10,
   7, 6, 31, 21, 45, -34, 16, 27,
   -36, 28, 17, -21, 5, -22, -9, 15,
   -34, -31, -10, -35, -20, 53, 18, 15,
   34, 27, -28, -21, 34, 30, 17, -5,
   -7, 44, -43, -13, 7, -3, 6, 51,
   33, 17, -12, 53, -31, 9, 40, 3,
   45, 22, -7, 39, 35, -25, 45, -7,
   47, -13, 3, -34, 30, 1, -43, 15,
   -13, 33, -21, 21, -40, 35, -53, 35,
   -22, -13, -6, -16, -44, -31, 37, 40,
   -11, 32, 4, -43, -17, 38, -34, -3,
   -10, -24, -14, -20, 35, 41, 10, 28,
   -22, -28, 18, 10, 31, -22, 28, -7,
   29, -11, 25, -43, 26, 5, -1, -10,
   7, -26, -53, 43, -45, -25, -15, 34,
   33, -36, 16, -4, -3, -17, 13, -10,
   -9, 20, -23, -29, 41, -24, -16, -28,
   -20, 18, 34, 1, -16, -65, -21, 29,
   -52, 42, -18, -9, -43, 1, -4, 25,
   46, -33, -43, -42, -58, 24, 23, 9,
   -23, 11, 36, -41, 19, -26, -48, -48,
   -42, -54, -53, -24, -13, -37, 41, -22,
   -23, -18, -34, -27, 47, -34, 20, -25,
   17, 9, 30, -29, -9, -24, 33, -2,
   12, 23, -11, 29, 25, -8, -11, -30,
   -17, -39, -20, 35, -12, 20, 4, 35,
   27, -15, 30, 6, -26, 20, 18, 15,
   38, -22, -14, 30, 27, 42, 21, -55,
   -19, 31, -10, 27, 9, 15, 10, -28,
   -22, -34, -22, -19, 8, 4, -13, 38,
   22, -8, -9, 6, 24, 35, -42, -23,
   25, 19, 38, -4, 0, -10, -33, -13,
   10, -8, -20, -33, 26, 38, -1, -25,
   -27, 11, 17, 41, -13, -28, -18, 45,
   14, 15, -24, -3, 15, -29, 30, 11,
   25, -9, -21, -20, 30, -69, -31, -27,
   22, 15, -1, -20, 15, 5, 43, 3,
   10, 30, -53, -21, -33, 41, -34, -45,
   -43, 23, 11, -16, -6, -5, 10, -29,
   -34, -32, -10, 30, 7, 25, 23, 14,
   -8, 13, -6, 7, -26, -9, 21, 27,
   52, -7, 27, -9, -22, 23, 12, 24,
   0, 35, 26, -10, 25, 11, -36, -35,
   18, -28, -45, 12, 46, -24, -40, -11,
   -13, -1, -8, 18, -25, 25, 13, 31,
   6, -8, -27, -41, -9, 11, 21, 29,
   38, -16, -29, 20, -3, -3, -6, -38,
   -4, -37, 27, 37, -8, 31, 5, -31,
   0, -20, -22, 14, 3, 18, 22, 8,
   -31, 3, -47, -38, 1, -26, 31, 22,
   -32, -33, 16, 29, 4, 23, 27, -16,
   -34, 9, -16, -42, 3, 22, 25, -19,
   -27, 7, 39, -36, -31, -6, 36, -42,
   16, -4, -36, 36, -18, 16, -26, -21,
   -16, 26, 15, 4, -7, 10, -4, -1,
   5, 1, 29, -9, -15, 25, 11, 39,
   -34, 10, -41, -40, -2, 10, 28, 30,
   5, -30, 7, -13, 17, -15, -6, 48,
   42, -19, -14, -17, -26, 22, 4, 7,
   24, -21, 31, 17, -13, 41, -14, -13,
   -15, -28, 24, 19, -36, -7, -23, 39,
   -27, 28, 15, -15, -22, -31, -26, -11,
   -6, -16, 9, -4, 15, 18, -28, -38,
   -13, 15, -2, 30, -6, -47, 36, -4,
   -35, -26, 23, 0, -6, -22, 5, 50,
   -20, -18, 5, -10, 38, -23, 15, -12,
   -41, -34, -8, -30, 36, -40, 3, 10,
   17, -10, 36, -4, -14, -28, -39, 31,
   -17, 16, 28, 40, -33, -11, -50, 34,
   -10, -16, 35, -14, -25, 39, -35, 5,
   -37, -28, 26, -16, -43, 27, -25, 25,
   -37, 5, -9, 23, -13, 26, -29, 27,
   6, 17, -33, 8, 3, 6, 1, 32,
   -49, -50, -41, -37, 24, -5, 12, 1,
   17, 10, 43, -35, -4, -28, -3, 31,
   -33, 35, 2, -27, 44, -33, 4, 19,
   -17, 16, 9, 7, -12, -36, -9, 17,
   -11, 1, -22, 28, 32, 36, 22, 34,
   -21, -20, -17, 13, 34, -17, 38, 42,
   13, -13, -12, 22, -44, 2, -29, -1,
   28, -14, -42, 32, -36, -3, 26, -10,
   -33, -18, -22, -28, -74, 46, 23, -53,
   -17, -23, -18, 41, -16, -26, 10, 22,
   20, -29, 45, 31, 39, 27, 39, 5,
   -36, -36, -6, 13, 8, 0, -23, 38,
   -7, 11, 39, 26, 7, 21, 17, 43,
   -24, -20, -20, 36, 4, -6, -25, -8,
   7, 13, -10, -20, -31, 36, 3, -18,
   -10, -42, -15, 13, -18, 4, 37, 2,
   -36, -39, -38, 17, 0, -1, -32, -23,
   -26, 13, -13, -34, -41, -12, 9, -34,
   46, -11, -45, -17, 7, -6, 2, -3,
   37, -39, -16, -3, -20, 1, -1, -42,
   26, -19, 20, 8, 22, 21, 37, -29,
   -34, 5, -21, -3, 29, 68, -26, 26,
   -1, -25, 21, 7, 7, -16, -13, 8,
   1, 5, 37, 40, 12, -34, -6, -37,
   38, -16, 13, -4, -11, 17, -23, 55,
   0, 24, -12, -42, 3, -4, -21, 13,
   -28, 54, -23, 17, -9, -8, 10, -42,
   -23, 6, -18, -37, -20, -13, -13, -30,
   -24, -36, 7, 20, 20, 0, 12, -13,
   34, 34, -28, 20, -2, 16, -18, 10,
   -6, 12, -43, -44, 17, -20, 27, 0,
   -46, 14, 32, 32, -16, -41, -24, 40,
   26, 9, 33, -12, -3, -10, 5, 5,
   32, -33, 21, -29, -18, -25, 35, -23,
   -36, 30, -14, -6, 14, -16, -39, 2,
   9, 8, 28, 39, 17, -12, -18, 48,
   8, -3, 62, 36, 24, 4, -4, 30,
   30, 12, -3, -5, 25, 24, 2, -33,
   -18, -2, -2, -33, -31, 19, -39, 49,
   -20, -51, 17, 13, -9, 35, 57, -6,
   -4, 9, 13, -29, 14, -23, -2, 30,
   5, 19, -27, 18, 14, 38, 12, 29,
   31, -27, 6, -41, 4, 5, -37, 22,
   -45, 2, -31, -74, -34, 21, 23, -19,
   29, 30, -18, 35, 6, 20, 30, 52,
   -12, -38, 29, 22, 42, -32, 41, -41,
   33, 7, 51, 47, -1, 0, 21, 7,
   7, 31, -2, 19, 32, -27, -21, 38,
   8, 23, -44, 15, 2, 16, 26, -9,
   -28, -15, -21, -27, -1, 20, 46, -9,
   -32, 2, 8, 4, -20, 18, 20, -3,
   12, 28, -36, -38, 8, -19, 5, 34,
   21, 36, 0, 24, 10, -7, -9, 39,
   13, 9, -25, 6, 23, 13, 12, 9,
   44, 1, 26, 36, 35, 0, -42, -8,
   18, -8, 2, 41, 19, -12, -43, 33,
   -16, -2, -16, -2, 22, -8, -22, 35,
   32, 8, 44, 7, -43, -48, 44, -15,
   50, -42, -10, 30, -18, -40, 16, -6,
   17, -8, 25, 7, -13, -30, -7, -24,
   -2, 8, 17, 15, -23, -34, 15, -13,
   -12, 2, -30, -25, -16, 25, 32, -25,
   -19, 15, 27, 53, 2, -52, 15, 18,
   20, -13, 13, 7, -28, -39, -1, 8,
   -37, -5, 28, 5, 20, -39, 40, -37,
   -23, -21, -33, -30, -21, -3, -26, -8,
   32, 8, -26, 6, -7, -43, -20, 41,
   -42, 10, 27, -36, -7, -27, 7, 25,
   2, 6, 35, 37, 34, -18, 1, -12,
   -8, 6, 4, -9, 37, 28, 43, 14,
   -39, -41, 23, 5, -24, -2, 2, -11,
   61, -42, 0, -24, 14, 18, 8, -6,
   -8, -69, 14, -9, 12, 44, -25, 3,
   37, 14, 6, 40, 6, -35, 12, -24,
   19, 27, 20, -16, -14, 38, 12, 36,
   -48, -33, -53, -9, -9, -26, -5, -28,
   11, -20, 16, -1, 22, 29, 14, -4,
   12, 28, 27, -22, -15, 18, -38, -13,
   -14, -33, -37, -33, -2, -3, 6, 0,
   44, -14, -1, 8, -28, -27, 45, 12,
   4, -35, -3, -14, 18, 42, -8, -17,
   46, -21, 25, 20, -39, 26, 16, -1,
   -2, -60, 24, -26, 18, -38, 28, 19,
   -28, -20, 20, 31, -37, 42, -34, -24,
   -10, 34, -45, -34, 9, 18, -1, -19,
   7, 5, 12, -5, -4, 22, 49, -35,
   -19, 21, 24, -34, 20, -45, 24, 9,
   4, -37, -39, 15, 14, -11, -19, 21,
   -25, 9, 25, 24, 46, 71, -26, -24,
   -6, -45, 27, -31, -7, -6, 16, -18,
   5, -36, -19, 3, 32, -14, -23, 21,
   24, 11, 29, 18, 13, 33, 32, -26,
   -32, -5, 8, 13, -41, 15, -45, 14,
   -20, -28, 23, 13, -16, 10, 22, -2,
   28, 10, -8, 15, -24, -17, 27, -46,
   -27, 10, -14, -5, 31, -2, -2, -41,
   -10, -25, 15, -36, -12, 40, 24, -17,
   2, 35, -36, 29, 24, -41, 28, -14,
   27, 22, 24, -2, 44, 9, 58, 9,
   2, -16, -1, -30, -20, -13, 19, 14,
   16, -13, 18, -17, 36, -25, 33, -2,
   38, -33, 0, -10, -17, 41, 40, -5,
   34, 2, -1, 18, -19, 22, 45, -20,
   -18, 6, -24, -21, -13, -41, 55, -29,
   -7, -47, -15, -4, -38, -14, 34, -19,
   -26, -20, 32, -14, 22, -16, -35, -8,
   6, 44, 36, 18, 22, -12, -41, 35,
   16, 0, 8, 27, -21, 49, -31, -14,
   -40, -9, -8, -8, 10, 43, -3, -36,
   22, 22, 4, -23, 10, 34, 26, 25,
   -35, -25, -33, 39, -53, 23, -39, 27,
   27, -7, 46, -34, 0, -36, 47, 2,
   39, -2, -2, -16, 46, -16, -31, -36,
   -28, 24, -23, -10, -5, -20, -22, 20,
   12, 9, 32, 19, 38, -33, -43, 34,
   16, 16, 22, -13, -5, -29, -9, 36,
   2, 33, -14, 52, 52, 3, 26, -12,
   -25, -15, -14, 22, -34, 4, 7, -25,
   18, -8, -25, 45, -7, 4, -12, 6,
   -26, 25, 14, 2, -25, -42, -1, -31,
   -18, -29, 10, -36, -14, 19, -45, -15,
   -43, 21, 3, -34, 2, -29, -23, -35,
   10, 9, -35, -35, 34, -11, -21, -3,
   27, 1, 34, 39, 22, 15, -36, 23,
   25, 8, 31, 13, 38, -40, -35, 8,
   1, -11, -26, -11, 8, 13, 29, -5,
   21, 30, -32, -22, -17, -19, 6, 29,
   31, 7, 4, -48, 12, -21, -2, 22,
   9, -43, -11, -47, 7, -3, 37, -22,
   -15, 30, 34, 46, 48, -1, -6, -23,
   -5, 43, -40, 38, -18, 5, 0, 5,
   25, -44, -31, -24, -18, -16, 14, -19,
   8, 19, 25, -6, 30, -37, -28, 13,
   40, 12, 5, -8, 21, 14, 1, 9,
   43, -13, -8, -36, 2, 23, -36, 35,
   -8, 26, 30, -26, -19, 9, 6, 16,
   -49, 1, -19, 35, -33, 22, -32, 3,
   8, -8, -14, -35, -31, 20, 45, -12,
   10, -15, 10, 30, 29, -28, 5, -7,
   19, -38, -26, -25, 14, -21, -25, -17,
   32, -3, 4, -16, -18, 2, 30, 31,
   -20, -14, 15, -8, -27, -37, -15, 26,
   1, -36, 7, -12, -18, 7, 21, 11,
   -43, -14, -1, -33, 24, -33, 21, -19,
   32, -2, -13, 5, -42, 30, 10, 40,
   3, -23, 37, 1, 38, 13, 32, 25,
   -9, 3, 39, 18, -16, -12, -21, -3,
   12, -8, 25, -35, -16, -23, 17, -23,
   -19, 50, -20, 24, 1, 42, -11, -12,
   26, -22, -35, -43, -21, 4, 45, 7,
   13, -4, 21, 29, 13, -14, 55, -2,
   -32, 3, 1, -4, -7, -8, 7, -22,
   43, -33, -18, -33, -47, 46, 33, 38,
   -16, 14, -3, -34, -18, 30, -19, -13,
   10, 18, 39, -4, -17, -17, -6, 21,
   -9, -22, -27, 4, 17, -22, 33, -27,
   -35, -45, -35, 48, 23, 36, -28, -17,
   -13, -39, 19, -18, -4, -34, 23, -11,
   -8, -7, -22, -33, 4, -35, -29, -31,
   -34, -42, -27, -8, -7, 34, 3, 37,
   -10, -39, 14, 13, 17, -19, 11, -8,
   -6, -41, 0, -23, 2, -2, -8, -20,
   26, 9, -27, 4, 14, -19, 18, -49,
   -9, 6, -23, -25, -41, 28, 64, -33,
   -10, 11, 9, -27, 58, 13, -19, 15,
   15, -11, -36, 6, 17, -21, 26, -34,
   1, 37, 18, 49, 16, 10, 32, -3,
   32, 34, 27, -13, 21, 13, 13, 36,
   23, -1, 3, 31, -12, 19, 30, 1,
   30, 28, 5, -20, 37, -47, -13, 4,
   -4, 35, -46, 13, -11, -12, 2, 18,
   32, -29, -43, -23, 31, -8, -14, -18,
   14, 18, 3, 20, -5, -38, -16, 27,
   -38, 4, -9, -6, -38, 42, -25, -23,
   -8, 19, -20, -15, -18, -26, 17, 32,
   13, -20, -2, -37, -29, 14, -40, -9,
   -10, 34, 5, -39, 12, 30, -28, -31,
   22, 35, 38, 25, -26, 20, -34, -27,
   25, 30, -29, 12, 18, 41, -20, -40,
   -19, -11, -25, 13, -3, 51, -7, -39,
   30, -17, -21, -10, -10, -13, 15, -39,
   -25, -9, -11, 0, 4, -34, 20, -2,
   0, 56, -31, 14, 13, 12, -31, -23,
   25, -8, -13, 9, -29, -15, 7, 20,
   27, -22, 14, 22, 26, 17, 32, 27,
   41, -7, 12, -7, -9, 30, 7, -24,
   48, -19, 20, -26, 1, -14, 28, -34,
   -42, 14, -26, 6, 28, -33, 32, -19,
   -33, -9, -3, -29, 24, -56, 45, 49,
   37, 36, -32, -42, 16, -1, -6, -8,
   -31, -10, -31, 27, 2, -24, 3, -24,
   15, 31, -31, -11, 3, 20, 44, -12,
   20, 3, -19, -37, -4, 30, -28, -31,
   33, -34, 8, -7, -12, 15, 2, -15,
   -20, -45, 33, 10, -5, 10, 4, -34,
   5, -27, -15, -18, 36, 35, 17, 32,
   21, 2, -37, -38, -1, -24, -18, -37,
   -19, -21, -6, -8, -15, 20, 7, -37,
   -8, -47, -57, 19, 30, 6, 45, 28,
   -1, -25, 23, 24, 16, 27, 32, 4,
   -36, -3, -48, 1, 23, 10, -39, -12,
   -23, -1, -17, -39, -2, 9, 21, 30,
   32, -11, 16, 35, 25, 30, -33, 17,
   20, 11, 21, -13, 37, -23, 23, -33,
   0, 5, -3, -15, -22, 36, -49, -28,
   -2, 11, 33, -18, -15, 3, -1, -28,
   -28, -17, -73, 58, 34, -23, 28, -36,
   19, 4, -4, 0, -45, -19, -27, -33,
   -18, -2, 26, -41, 39, 30, 7, 37,
   -14, 21, 27, -31, 10, -12, 31, 26,
   -15, -22, 5, -3, -2, -37, 2, -15,
   0, 0, 27, 40, 32, 34, -5, -27,
   -5, -25, -29, 22, 4, 23, 23, 11,
   -27, 0, -33, -21, -27, -24, 28, 11,
   -18, 10, 12, 8, 13, -7, 5, 32,
   54, 20, -9, -10, 23, -49, 10, 34,
   7, 12, -18, -12, -3, 23, 29, -26,
   -33, 43, 25, 37, 19, 24, -19, -21,
   -42, 8, 9, -25, -46, 1, -42, 5,
   -25, -39, 25, -26, -24, 5, 24, 36,
   66, 33, -18, 25, 8, -10, -23, -31,
   -7, -4, 35, -13, -36, -1, -10, -9,
   46, -32, 34, -15, -11, 29, -55, 4,
   24, -1, -3, 20, 37, 12, -20, 19,
   15, -1, -37, 51, 64, 5, -30, -27,
   -2, -43, -5, -13, -42, -20, -23, -44,
   -32, -35, -37, 37, -31, -22, 26, 32,
   2, 36, -12, 18, -26, -10, 2, -35,
   14, -25, 2, 31, 27, 20, 10, -16,
   -27, -31, -13, 39, -26, 10, 3, -12,
   27, 26, -9, 5, 35, -21, 4, 32,
   -23, 32, -12, 17, 12, -1, -47, -7,
   42, 30, 14, 32, -15, -64, 44, -33,
   14, 23, 36, -3, 5, -34, 5, -13,
   25, 2, -8, -22, 8, -47, 0, -14,
   -66, 29, 34, -37, 15, 8, 22, -7,
   -34, -42, 22, -33, 38, 22, -15, -10,
   32, 30, -8, 20, -28, -9, -29, -29,
   22, -36, 27, 27, -42, -25, 17, -4,
   -4, -13, 30, 3, 34, -32, 51, -16,
   11, -45, 39, 30, -15, -14, 60, -33,
   -13, 4, -3, 35, 29, 33, -5, 27,
   -11, -38, 36, -14, -59, -26, -43, -29,
   35, -31, 9, 36, -21, 6, 2, 8,
   -35, 16, -13, 17, 11, -33, 21, 4,
   -13, -37, -6, -17, 4, -4, 29, -19,
   -37, 11, -6, -15, 1, 4, -15, 26,
   0, -42, 16, -6, -4, 20, -2, 35,
   -39, 5, 39, 21, 23, -28, -8, 8,
   -21, -44, -33, 26, 32, 24, -23, -39,
   7, -10, 38, -3, 40, -9, 15, 11,
   -9, -55, 26, 2, 25, -18, 19, 21,
   42, -42, -42, 4, -3, 26, -27, -21,
   8, -14, -17, 14, -13, -9, 30, 8,
   2, -26, -31, -15, 37, 23, -7, -42,
   -39, 8, -18, 5, 9, -26, -25, 11,
   -11, -3, 36, -12, -23, -35, 30, -4,
   27, 48, 22, -9, -18, 40, 15, -29,
   -26, -7, -33, 39, -8, 32, 8, 24,
   4, -8, 18, -8, 23, 27, 8, -16,
   -5, -32, -4, -21, 41, 3, 50, 27,
   25, -5, 26, -7, 8, -18, 17, 3,
   31, 0, 37, -5, -1, -11, 1, 22,
   4, 27, -31, -7, -9, -16, 7, -20,
   25, -17, -7, 9, 9, -9, -13, 9,
   8, 18, -7, -19, 42, 34, 35, -45,
   10, -34, -28, 20, -25, 24, 15, -13,
   -21, -36, 34, 38, -8, 4, 30, -37,
   25, 24, -25, -14, -44, -30, -17, 29,
   4, 30, 18, -23, 16, -12, -27, 14,
   4, -3, -14, 15, -28, -18, -13, 3,
   -32, -62, -40, 9, -19, 37, -7, 27,
   4, -13, -24, -47, 18, -42, 3, -1,
   41, -21, 5, -39, -29, 0, -40, -44,
   -52, 5, 35, -18, 0, 37, 15, 41,
   8, -16, 37, 34, -30, -15, 26, 39,
   15, 32, 5, -36, 1, 32, -5, 20,
   -32, -36, 18, 2, -5, 11, 14, 35,
   36, 17, -30, 5, 22, 3, -41, 10,
   -12, -12, -23, -10, -11, -31, -3, 37,
   17, -35, 4, -33, -1, -19, -39, -24,
   -38, -30, 24, -31, 15, -21, -4, 39,
   35, -25, 15, 16, 21, 43, 41, 10,
   20, -26, -21, 26, -33, 19, 10, 29,
   32, -37, 14, 32, 30, 33, 21, 26,
   20, 27, -41, -11, -27, 38, 50, 1,
   -28, 7, 15, -2, -8, -2, -21, -31,
   14, -7, 18, 3, -28, -15, -8, -21,
   -25, -12, 8, 32, -22, -44, 39, 42,
   20, -10, 30, 20, 23, -24, -33, -10,
   -32, 16, 3, 22, -11, 2, 51, 17,
   -22, -16, -21, 43, 24, 42, 1, 10,
   -18, -10, -27, 13, 5, -5, -9, 21,
   -13, 27, -24, 18, 19, -38, -12, -5,
   -4, -43, 16, -34, 18, -14, 38, 26,
   17, 17, 26, 5, 15, -33, 9, -9,
   -10, 33, 11, -28, -6, 16, -22, 7,
   28, 33, -3, -14, -24, 5, 6, -14,
   -7, 13, 38, 23, 38, -24, -2, 7,
   -25, 6, 12, 11, -8, 29, 22, 28,
   -13, -6, 39, -19, 8, 8, 1, -22,
   18, 32, -23, -2, -27, 16, -8, 19,
   -8, -36, 29, 16, -40, 13, 1, 20,
   43, -15, 28, -37, -47, 43, 10, -5,
   -31, -22, -39, -3, -14, 3, -19, 36,
   -17, -22, 45, -4, -32, -47, -23, -14,
   4, 38, -10, 20, 1, 13, 10, -13,
   -38, 7, 21, 2, -18, 34, -14, 25,
   34, -45, -2, -32, -63, 15, -25, 34,
   -6, 11, -56, 16, 11, -2, -31, 47,
   87, 44, -9, 14, -18, 23, 22, -36,
   21, 19, -48, 3, -28, -22, 5, -16,
   -8, -28, 13, -28, 4, -34, -37, 5,
   17, -20, 28, 12, 22, -36, -5, 4,
   -23, 24, -41, 56, -10, 7, -5, -22,
   -23, 38, -2, -4, -27, -17, 31, -49,
   15, -10, -33, -32, -5, 39, -27, 0,
   42, -12, -30, -27, -23, -24, 11, -3,
   11, -10, -43, 17, -46, -12, 27, 1,
   2, 11, -9, 24, -7, 34, 8, -26,
   20, -5, -13, -42, 29, -9, 36, 4,
   -24, 9, 22, 46, 21, 3, -36, 2,
   27, -42, 28, 5, 6, 20, 1, -37,
   15, 21, -1, -15, -30, 34, 15, -22,
   -22, 9, 13, 47, 7, -20, -8, 20,
   31, 22, 35, 32, 31, -5, -5, 10,
   -14, 5, 5, -12, 14, 44, -6, -54,
   0, -21, -4, 41, 27, 31, -6, -18,
   54, -38, 48, -27, 46, 5, 17, 1,
   28, 18, -32, 7, -44, -34, -35, -4,
   51, -6, -32, -22, 4, 30, -28, 9,
   -17, -26, 9, -5, 6, 6, -21, -34,
   -24, -25, 1, 26, 27, 23, 34, -37,
   3, -25, -28, -26, -28, 25, 19, 19,
   -36, 17, 3, 26, -2, -36, -19, -9,
   -17, 2, 8, 25, -23, -9, 46, 6,
   -36, 13, -19, 3, 0, 7, 20, 26,
   -7, 1, 20, -17, 8, 3, 17, -37,
   0, 29, 16, 26, 14, -9, -28, -17,
   9, 6, 37, 21, 1, -35, -6, -27,
   13, -34, 7, -43, 26, 1, -35, 30,
   -27, 21, -10, 15, 19, -18, -11, -34,
   -25, 21, -41, -16, -38, -42, -4, -29,
   14, 16, -41, -30, 1, -2, -6, -19,
   -11, -2, -20, 23, -16, -19, 44, -33,
   -14, -7, 19, -22, 0, -1, -18, -37,
   -4, -15, 34, -32, -49, 32, -34, -28,
   -1, -32, 10, 36, 35, 31, 1, 18,
   -3, -7, 15, 1, -22, -4, 35, 9,
   1, -2, -38, 8, 22, -15, -40, 3,
   -19, -6, 0, 21, -55, -5, -35, 28,
   5, 11, 43, -35, 5, -30, -42, 8,
   -42, 38, -28, 38, -30, 19, -8, 13,
   -22, -18, 18, 24, 38, -3, -30, 3,
   25, 2, 35, 30, 13, 15, 2, 31,
   41, 29, -16, -22, 9, 13, -13, -9,
   16, 20, 32, 8, -15, -23, -4, -8,
   -31, -35, 1, 18, -40, -35, 6, -2,
   -55, -9, -5, -33, 11, -35, 12, -40,
   -24, -28, 17, -22, -1, -36, -49, 48,
   45, 41, -5, -30, -10, 42, 42, -51,
   -43, -32, -29, 25, -29, -34, 29, 28,
   15, 47, -18, -16, 42, 10, 22, 25,
   -7, -43, 33, 40, 41, -3, -26, 48,
   -10, 18, -45, 9, -40, 0, -26, 8,
   -3, 17, -42, 35, -30, 38, -26, -12,
   -40, -8, 28, 15, -21, 35, -3, -26,
   -12, 17, -21, -50, 39, -5, 15, 6,
   -43, -1, -53, -46, 4, -16, 21, 9,
   -22, 26, 10, 17, -21, 12, 21, 21,
   4, -33, 39, 7, -42, 25, -21, -38,
   3, 2, -12, 14, -33, 29, 10, -25,
   -22, -27, 2, -28, -37, -4, -36, 5,
   9, -5, -39, -15, 34, -37, -29, -13,
   6, -31, -7, -55, 31, 9, 18, 0,
   -14, 29, 0, 15, -58, -4, 18, -15,
   38, 48, -17, -12, -15, 16, -35, -15,
   -44, 52, 18, 12, -25, 61, -21, -24,
   -18, -39, 38, 36, -1, 37, 44, -25,
   21, -24, 28, 17, 53, 32, -27, 22,
   48, -12, -20, 16, 14, -18, -19, 36,
   34, -2, -1, 27, -7, 28, -8, 1,
   -26, -28, -6, -32, -16, 26, 23, -17,
   43, 28, -8, -14, -21, -8, -19, -25,
   28, -17, -5, -38, -19, 37, -56, -42,
   -43, 17, 19, -1, -37, -18, -6, -17,
   -19, -20, -4, 31, -10, 4, -33, 21,
   0, -5, 9, -33, 44, 10, 21, -33,
   45, 15, 18, -8, -29, 28, 12, 14,
   -31, -4, 17, -16, 27, -20, -39, -9,
   -41, -18, -25, 37, 2, -16, -7, 22,
   -5, -36, -24, 19, -14, -2, 35, -17,
   38, 28, 5, 27, -11, -11, 22, 22,
   -43, 36, 1, -30, -25, 22, 32, 18,
   12, 21, -31, -14, 40, 15, 13, 4,
   49, -33, -2, -31, -2, -16, -29, -6,
   -6, 26, -12, -7, -13, 7, -11, 18,
   16, 2, 15, 49, -27, -6, 19, 3,
   29, -32, -24, 18, -41, -4, 6, 9,
   10, -48, 46, -45, 33, -43, -6, 11,
   27, -22, -32, 3, -27, -44, -20, -12,
   -40, -22, 26, -22, -12, 2, -3, -9,
   -3, 28, -3, 17, -28, -18, -9, -7,
   -6, -5, 22, -27, 44, 5, 28, 7,
   -7, 36, 20, -7, 11, -39, 6, -30,
   -6, 30, 21, -44, -10, 25, -37, 10,
   -23, -26, -35, -12, 22, -36, 25, 18,
   34, 21, 32, 35, 12, -7, 26, -12,
   40, -15, 34, 25, 25, -4, 3, 13,
   -45, 31, -7, 13, -13, 27, -24, -15,
   8, -18, -20, 16, -5, 38, -42, -41,
   34, -15, 8, 39, 24, 24, -14, -19,
   -36, 9, -7, -36, -9, 4, 26, -24,
   25, -15, 6, 38, 21, -1, 34, 29,
   -30, 12, 24, -9, 57, -17, -62, -10,
   -8, 41, 29, 50, -36, -34, -55, -14,
   -25, 62, -6, 22, -55, -11, 20, -14,
   -15, 25, 12, 26, -27, 14, 29, 33,
   48, 42, -16, -26, 21, -13, -22, 12,
   -42, 23, -22, 16, 15, 1, -57, 24,
   -28, 17, 4, -37, -21, 5, 5, -28,
   18, -18, 16, -41, -1, -35, -15, -6,
   3, -8, 25, -8, 37, 7, 55, 41,
   12, 19, -46, -2, 25, -42, -32, 0,
   -17, 10, -1, 11, 27, 8, 27, -20,
   -11, 32, -1, 26, 21, -23, -22, -24,
   -8, 11, -36, -22, -9, -35, 12, -26,
   10, 23, 29, -42, 30, -32, 16, -29,
   -19, -43, -2, -11, -23, -27, -14, 15,
   -28, -18, 14, -13, -23, 20, -19, 10,
   -26, -31, 40, 4, -23, 60, -7, -24,
   49, -28, 39, -26, 6, 5, 38, -35,
   -5, -27, 26, -21, 68, -3, -15, -46,
   52, -30, -31, 29, 21, 26, 24, 29,
   -13, -4, -12, 49, -21, 19, 15, -29,
   -29, 21, 29, 25, 46, 27, -15, -3,
   47, -47, 13, -15, 0, -12, -18, -42,
   33, 5, -11, -10, -4, -1, 0, -12,
   32, 26, -24, -22, 3, -34, -55, 37,
   3, 17, -17, 35, -29, -18, 30, -23,
   14, -10, -6, -18, 42, -54, 0, 35,
   -34, -3, -48, -13, -26, 8, -14, 15,
   -16, 3, -13, -28, 13, 21, -34, 30,
   -29, 7, -23, -25, -5, -5, 19, 25,
   -11, -26, 31, 13, 37, -36, -15, 23,
   30, 34, 7, 22, -3, -9, -14, 7,
   -30, -43, 7, 24, -2, 10, -13, -5,
   13, -27, -18, -6, 49, -1, 24, 10,
   18, 17, -17, -7, 43, 23, -6, -18,
   20, -21, 11, 33, -22, -24, -32, -19,
   -31, -50, -36, -19, 15, 49, 12, -30,
   36, -34, -26, -7, -27, 15, -46, -31,
   -24, 58, -16, -28, 26, 40, -43, -23,
   -42, 35, 9, -10, 19, -18, 7, 35,
   24, 36, 17, -18, 18, 17, 12, 1,
   -23, -4, 41, 42, -3, 38, 2, -26,
   45, -40, -6, 8, -9, 20, -32, -32,
   10, 6, -38, -15, -39, 38, -34, 13,
   -3, 24, 35, 11, 45, -12, -18, -20,
   -15, 8, -35, -43, -5, 1, -2, -24,
   14, 11, 34, -11, 9, -31, -12, -14,
   1, 0, 13, 31, 12, 50, 39, -33,
   26, -31, -9, 24, -29, 17, 33, 25,
   14, 25, 2, 3, -26, -15, -4, -2,
   -6, -21, 25, 22, -31, -30, -37, 52,
   24, 45, -25, 45, 22, 32, 23, -5,
   -6, -28, -33, 28, 18, -22, -22, 2,
   -54, 6, 8, -9, 54, -44, 21, -22,
   13, 8, -16, -47, -40, -25, 29, 14,
   -12, -46, 7, -17, -31, 20, 43, -28,
   -18, -23, 43, -42, -13, 31, -6, -10,
   42, 27, -3, 26, -7, -32, -2, 2,
   -21, -1, -10, 15, -30, -20, -13, -21,
   -8, -9, 20, -41, 46, 19, 24, -29,
   -29, -32, 22, 22, -45, -32, 43, -20,
   41, -35, -12, -26, -8, -25, 18, -16,
   20, -26, 14, -8, -7, 0, 6, -19,
   -10, -45, 25, 35, 31, -33, -20, 29,
   -14, 6, 4, -18, 1, -35, 12, -15,
   -36, -46, 42, -12, -10, -17, 4, 0,
   -7, 22, -32, 19, 7, -24, 44, 30,
   46, 17, 29, -18, 4, -21, 47, 27,
   -12, 41, -18, 36, 32, 11, -14, -39,
   17, -11, 31, -20, -29, -22, -19, -21,
   20, -16, 19, -12, 27, -17, 36, 35,
   19, -31, 30, 25, 36, -6, -31, 15,
   -33, -5, -11, -28, 23, 32, -8, -5,
   -19, 3, -10, 16, -8, 35, -48, 11,
   6, -8, 2, 36, 15, 17, 18, 18,
   7, -29, -10, -9, -24, -18, 6, 24,
   -47, 13, -18, -48, 8, -4, 17, -10,
   -31, -27, -39, -46, 24, 37, -25, -18,
   29, 5, -1, 6, 22, 2, -27, -34,
   -25, -11, 3, -16, 31, -11, 5, -25,
   42, -63, 49, 24, 2, 18, 24, -31,
   6, -18, 4, -28, 14, -14, -35, -12,
   37, -30, -3, 26, 36, 12, 30, -15,
   10, 16, -24, 13, 29, 0, 19, -1,
   27, -41, -3, 22, 21, 39, -16, 35,
   1, -29, 15, 7, 33, 23, -35, 33,
   -27, 28, -9, 13, -39, -40, -24, -29,
   16, -5, -3, 28, -16, 11, 0, -5,
   -9, -7, 7, 8, 57, 17, -7, -8,
   -5, -38, -2, 29, 2, 12, -3, -1,
   -28, -19, -14, 13, 0, -24, -2, -20,
   -24, 28, 13, -22, -8, 4, 11, 43,
   -47, -7, 33, 18, -26, -21, -9, -22,
   -6, 59, -13, 7, 23, 11, 2, -75,
   15, 28, 12, 30, 16, -49, -30, -23,
   -18, 29, 19, 8, 33, 27, -29, -33,
   -29, -12, -11, 31, -4, -10, 45, -20,
   5, -10, 16, -29, 24, -3, 12, -2,
   0, -23, 2, 1, 0, 24, 32, -26,
   23, -19, 3, 4, -20, -40, 21, -19,
   -20, -25, 21, -28, -42, 27, 29, -3,
   -45, 2, 4, 29, 39, 15, -9, -36,
   -14, 33, -19, -38, 41, -1, 42, -41,
   -15, 10, 8, 22, 31, -27, 1, 0,
   30, 7, -3, -44, 37, 40, -25, 24,
   25, 12, 15, 37, 32, 20, -38, 6,
   34, 20, 11, 32, 9, -10, 12, -4,
   39, -7, -24, 20, -7, -25, -59, 20,
   -23, -20, 16, 40, 15, -8, 22, -16,
   -50, 31, 23, 6, -1, 8, 20, -19,
   -18, -26, -13, -11, -8, 9, 31, 30,
   -4, 36, 27, -27, 18, 18, 45, -36,
   43, -30, -32, -10, -12, 52, -15, 24,
   -31, 29, -19, 18, -42, 34, 32, -40,
   21, 11, -13, -14, -37, 33, -4, 33,
   40, 17, -11, 2, -10, 30, 16, 32,
   22, 14, -38, 5, -3, -25, 38, 2,
   4, 12, 34, 30, -26, -23, -33, 2,
   4, -13, 2, -6, -41, 45, 35, 31,
   -4, 8, 13, -2, 22, 29, 19, -37,
   -46, -40, 16, -11, 37, 13, -18, 40,
   31, -34, -9, 42, -36, -15, -15, 34,
   0, 13, 32, 12, 47, -18, 15, 38,
   7, -12, -30, -5, 13, -4, -28, -45,
   -7, -13, 21, 38, 19, -16, 14, -18,
   18, 8, -29, -2, -19, -38, -33, 13,
   -16, -3, -14, -38, 4, -19, 52, 35,
   -14, -54, 1, -15, 30, 17, -28, 34,
   25, 30, 9, 30, -1, 24, -12, 2,
   -18, -3, -32, 26, 43, 6, -57, 23,
   24, 10, -20, 29, -21, 33, -11, 34,
   -7, -20, -14, -36, 26, 4, 12, -23,
   27, -12, 27, 15, 11, 33, 36, -14,
   12, 24, -28, 36, -44, 21, 26, -38,
   -7, 31, 2, -3, 19, 36, 25, -41,
   -13, -15, -17, 15, -35, -32, -7, 2,
   -9, 19, -28, -42, -1, -4, 14, 16,
   -8, 37, 26, -13, -17, 34, 27, 8,
   -25, 6, 25, 3, 19, -29, -2, 37,
   22, 13, 6, 24, -21, -6, -28, -18,
   -10, 31, -12, -9, -20, -9, 10, 0,
   34, 0, 35, -37, -13, -32, -1, -5,
   -13, 20, 45, 61, 40, 23, 39, 12,
   -11, 5, -2, 17, -32, 39, -31, -7,
   -6, -12, 5, -5, 1, -11, -2, -15,
   3, -26, 26, 23, -7, -29, 40, 14,
   -18, 27, -56, 13, -21, 40, 33, 33,
   12, 54, 1, 35, -40, -9, 19, -11,
   33, -17, -38, 2, -27, -6, -22, -13,
   -17, -3, 22, -39, 34, 35, 24, 34,
   -43, -12, 1, 30, 26, -18, 24, 18,
   -23, -7, -34, 11, 32, -24, -7, 12,
   -47, 22, -19, -6, -10, -44, -1, 26,
   7, 29, -16, -7, -2, 13, -14, 0,
   35, 1, -56, 37, -19, -40, -32, 8,
   -30, -9, 35, -25, -16, -19, 27, 25,
   -5, 14, 38, -30, 33, -1, 30, 1,
   -15, 8, 33, 22, -29, -30, 40, 17,
   -44, -52, 29, 30, -21, -3, 4, -22,
   -16, -13, 24, 32, -12, -10, 38, 44,
   7, 2, 50, -3, -12, -34, 24, -19,
   -14, 19, -36, 26, -16, 21, -19, -12,
   -41, 8, -32, 1, -32, -10, 86, 13,
   22, 2, 18, 26, -17, -23, -45, 22,
   32, -53, 38, 10, 17, 33, -29, -11,
   -21, 26, 36, 7, -30, -11, 11, 1,
   -20, -7, 38, 45, -15, -28, 12, 42,
   34, 12, -17, 35, -33, 8, 10, 19,
   -19, 7, -39, -15, -22, 19, -12, -19,
   -3, 43, 1, -24, -24, -8, 1, -5,
   51, 26, 3, 29, 16, 2, 21, -68,
   33, 51, 24, 68, 17, -28, 21, 40,
   22, -52, -13, -13, 28, -3, 34, 33,
   11, -32, 59, -20, -36, -16, -23, -31,
   -18, 5, 48, 1, -27, -15, 19, -12,
   19, -6, -14, 1, -9, 1, -10, 14,
   16, 32, -46, 15, -7, 33, -24, -1,
   17, -10, -42, -44, -12, 34, 33, -10,
   43, 40, -46, -4, -41, 49, 7, 5,
   9, 11, -2, 33, 15, 58, 19, 34,
   -22, -26, 29, -28, -7, -11, -69, -6,
   19, 30, 30, 46, 14, -28, -33, 33,
   -2, 27, 34, -24, -50, -22, -10, 19,
   9, -37, -1, 3, 65, 27, 35, 45,
   -14, 66, 68, 10, 1, -15, 26, -30,
   -21, -6, 12, -16, 31, -39, -24, -37,
   -55, 79, -60, 26, 15, 51, -29, -48,
   -18, 44, -50, -61, -18, 24, -34, 22,
   -31, 44, 49, -54, 1, -24, -17, 72,
   14, 5, -59, -53, 35, 5, 9, 13,
   -39, 40, 0, -17, -9, 34, 4, -41,
   -11, 9, -31, 4, 47, -40, 57, -12,
   23, 31, -19, -43, -22, -57, -22, -39,
   2, 37, -22, -11, -16, -6, 25, -31,
   1, 10, 37, -39, -2, 15, -18, -10,
   -16, 48, 60, 3, 33, 27, -59, 37,
   -23, 44, -23, -2, -15, -1, -31, -3,
   -14, -5, -32, 38, 48, 41, 78, 15,
   -9, 21, 38, -42, 46, 29, -1, -5,
   37, -12, -36, -23, 60, -10, -30, 14,
   67, -16, -32, 31, 33, 48, -12, 45,
   50, 6, 26, -8, -23, 10, -45, 36,
   -18, -31, 54, -12, 35, 74, 19, -41,
   65, 38, 6, 12, -18, 18, -21, 60,
   15, 24, -9, 4, 57, 14, 21, 2,
   -11, 16, -2, -121, -10, 8, 2, -37,
   -11, 19, -44, -15, 50, -23, 4, 14,
   -13, -9, -40, 20, -53, 0, 80, -12,
   36, -56, 41, 93, -3, 47, 26, 36,
   64, -5, -28, 19, -33, -13, -13, 58,
   -1, 25, -5, -1, -19, 3, 13, -14,
   3, -3, 1, -30, -12, 34, 39, 22,
   -31, 66, 26, 13, -39, -13, 31, -28,
   30, 19, 12, -21, 17, -51, 63, -5,
   33, 17, -14, -38, 21, -10, 26, 11,
   -8, -27, 55, -23, -11, 67, 36, 0,
   14, -54, 18, -31, -21, 37, -16, 2,
   14, -12, -33, 40, -26, -34, 5, -1,
   -12, 29, 50, -2, -7, -20, -15, 48,
   0, -21, -25, -14, 10, -9, -4, 68,
   -33, 54, 59, 27, 20, -28, -14, 32,
   8, 48, 4, -16, -41, -5, 30, 55,
   9, 16, 1, -2, 61, 20, -7, -38,
   2, -8, 13, -101, -25, -5, 18, 42,
   19, -45, 6, 4, -79, 8, -23, 50,
   18, -38, -68, 33, -13, -36, -34, 33,
   -4, 63, 46, 19, 4, -13, 22, 9,
   -5, -31, -8, 26, 32, 3, 22, -24,
   48, -6, -33, -46, -19, 28, -13, -10,
   15, -13, 22, -62, -31, 16, 25, -6,
   39, -34, -34, -14, -25, 37, -45, 1,
   6, 11, 22, 26, 17, 0, -44, 10,
   -6, 0, 15, 21, -27, 54, -8, 14,
   -2, -24, -50, 8, 17, -19, 42, -38,
   15, 43, -32, 22, 10, 75, 19, -37,
   62, 17, -37, -25, 37, 64, 22, 4,
   -19, -23, -36, -4, 14, -31, 2, 20,
   -33, -48, -13, -30, 48, -7, -1, 35,
   40, 49, -57, -13, -6, 10, -16, -6,
   41, 7, -15, -20, -1, 19, 3, -10,
   -67, -13, 47, -15, 0, -36, -32, 20,
   -27, 12, 25, -61, -3, -33, 22, 15,
   -23, -14, -7, 21, 35, -77, 5, 69,
   4, 15, -4, 19, 20, 23, 59, -7,
   -32, -4, -38, 1, -7, -11, 15, -33,
   47, -43, -5, -25, -32, 36, 15, 62,
   35, -44, 4, 10, -18, -23, 40, 13,
   -2, 18, -22, -71, -24, 6, 47, 26,
   40, -22, 12, 5, 10, 4, 22, -43,
   -11, -15, -10, -16, -22, -44, 46, 16,
   48, 3, -19, 1, 11, -29, 22, 12,
   44, -28, -8, -19, 65, 101, 66, 41,
   60, 44, 33, 56, 31, -82, -13, 35,
   47, 29, 3, -20, -7, -16, -16, -44,
   41, -42, 20, 21, -7, 20, -64, -26,
   5, 51, -24, 51, -15, -32, 3, 8,
   -44, 79, 90, 11, -22, -96, -35, 27,
   -3, 65, -60, 46, -22, -40, -75, 102,
   9, 40, -57, 35, 47, -54, -29, -116,
   2, 99, 82, -57, 16, 30, -21, -23,
   40, -45, -21, -19, 45, 52, -3, 2,
   36, 9, -106, 39, -11, -28, -13, 62,
   -22, -48, 54, 40, 51, -4, -15, -32,
   40, 35, 33, 2, -2, -41, -38, 73,
   66, 40, 21, -29, -41, 50, -8, -25,
   23, 43, 22, -80, 8, -41, 18, -51,
   -1, -49, -56, 8, -79, -32, -17, -2,
   22, 1, 49, 8, -15, 10, 32, 45,
   54, -12, -85, 45, -3, 43, 25, -28,
   5, -69, -12, -52, 19, 83, 34, 26,
   -21, 9, 41, 6, 16, 49, -42, 48,
   -4, -26, -49, -6, 5, 41, -29, 19,
   8, 72, -20, 15, -61, -26, 1, 0,
   -2, 25, 1, -1, 14, -3, 13, 69,
   0, 6, 64, -39, -20, 27, -5, -44,
   46, -8, 34, 19, 37, -55, -10, 51,
   16, -1, 50, -34, 46, 30, -5, 0,
   23, 36, -22, -58, 26, -8, 40, -31,
   0, 32, 3, -77, 21, -15, 39, 88,
   5, -46, -71, -13, -20, 54, 43, -30,
   20, 61, -35, 30, 11, 30, 11, -10,
   19, -2, -79, -8, 6, -13, 23, 47,
   13, 11, -35, -4, -7, -47, 31, 28,
   7, 63, 47, -80, 39, -31, 28, -5,
   -8, 18, 85, 39, -35, 21, -26, -56,
   11, 49, 68, 22, 15, -28, 21, 49,
   21, -10, -12, 12, -5, -2, 41, 0,
   -18, 5, -4, -23, -21, 41, 15, 23,
   -26, 49, -44, -40, 15, 127, -7, 8,
   31, 1, -54, 62, 43, -5, -27, 0,
   -1, 7, -27, -13, -13, 2, -40, 17,
   -34, -22, -45, 73, 23, -13, 16, 54,
   22, -51, 33, -45, 33, 93, -38, 38,
   23, 29, -33, 16, -9, -5, -25, -37,
   -5, 35, -4, 21, 18, 39, 29, -5,
   -67, 15, 22, -8, 21, -20, 2, 23,
   11, 49, 16, -87, 12, -28, 50, 73,
   47, 47, 2, 17, -33, -63, -57, -30,
   47, 57, -58, -22, -66, 11, -33, 30,
   8, 12, -1, 37, 9, -23, -24, -27,
   -39, 46, 0, -68, -32, -71, 18, 34,
   -45, 21, 60, -23, -8, 17, 2, -25,
   -22, 47, 18, -33, -28, 21, 30, -19,
   53, -53, 15, 5, -18, 53, -50, 1,
   39, 0, 12, -26, -20, 99, -2, -43,
   1, -50, -1, -28, -40, 0, -30, -9,
   15, 7, -14, -22, 18, -19, -48, -19,
   -85, 31, -10, -22, -87, -4, -32, 65,
   27, 88, 42, -9, -43, -29, -52, 18,
   -51, 33, 7, 38, -2, -5, -20, 13,
   58, -23, 90, -33, -14, -77, -2, -26,
   -1, 29, -53, -16, -22, -82, -14, 33,
   -26, 33, -36, 33, 62, 6, -39, -4,
   14, 107, 16, -44, -45, 42, -16, -16,
   57, -31, -27, -40, -26, 21, -18, 92,
   -33, 61, -128, 16, -11, -27, 16, 92,
   9, 11, -39, 30, -88, -32, -71, -7,
   -31, 19, -13, 21, 8, -17, 17, 10,
   52, 60, -3, -82, -84, 5, -32, 11,
   -13, 70, 41, -77, 38, 16, 40, 25,
   43, -25, 92, 27, -61, 55, -55, -48,
   -5, -22, 101, -23, 57, 38, -60, 36,
   29, 37, 36, -31, -9, -56, -23, -3,
   13, 13, -22, 4, 22, 35, -47, 18,
   21, -23, 3, 52, 2, -50, -36, 47,
   -12, -2, 15, -35, -27, -2, 27, -48,
   23, -73, 7, 16, 9, 21, 37, 36,
   31, -53, -7, -17, 13, -62, -27, 14,
   9, 43, -26, 19, 61, 11, -23, 30,
   53, 14, 15, -26, -13, -34, -36, 127,
   -5, 10, 83, -37, 2, -36, 52, -65,
   10, -10, 37, -65, 28, 0, -44, 31,
   8, 31, -21, 90, 70, 69, 4, 54,
   31, 13, 3, -4, 30, 52, 122, 65,
   9, -59, -40, 51, 20, -23, -17, 9,
   94, -37, 11, 22, 12, 0, -1, 114,
   10, -4, 78, 35, 24, 23, 21, -39,
   29, 7, -6, -67, 33, -7, 15, -19,
   -10, 7, -52, 21, 20, -88, 19, -23,
   -24, -11, -39, 0, 35, -79, 127, 95,
   36, 20, 45, 35, -10, 78, -43, -10,
   -41, 4, -27, -57, 5, 6, 78, 4,
   25, -32, 22, 23, -12, -60, -92, -30,
   -17, 21, 4, -37, -29, -4, 15, 9,
   25, 42, 26, -28, -43, 8, 13, -17,
   -35, -6, -39, 43, 43, -15, -10, -1,
   -37, 127, -17, -60, -6, -22, -38, 28,
   -101, 15, -29, 56, -20, -18, -8, -15,
   15, 64, -115, 12, -16, -44, 5, 5,
   43, 16, 7, -28, -2, -16, 5, -5,
   3, -27, 17, 111, 30, 38, 2, 51,
   0, 22, -77, 35, 9, -117, -106, -29,
   -5, 8, 2, -43, 21, -38, -76, -20,
   -33, 24, 32, 39, -43, -9, -7, -5,
   -2, 88, -99, -1, -41, 66, 26, -8,
   -18, 21, 4, -4, 37, 17, 27, 50,
   -28, -39, 49, 44, 29, 33, 23, -46,
   34, -26, 104, -30, -26, 112, -96, -64,
   -28, -21, 5, 59, 3, -54, 36, -16,
   -15, 74, -22, 55, -17, -63, 38, -10,
   -60, 112, -5, -15, 34, 119, -48, -37,
   34, 12, -46, 1, 28, -32, 51, 9,
   -68, -18, -38, -13, -5, -19, -7, -40,
   19, 4, -38, -20, -10, -3, -20, 6,
   3, -63, -23, -38, -7, 100, -30, -6,
   -41, -9, -31, -8, 60, 28, -19, 2,
   -4, -12, -9, 17, -53, 60, 55, 32,
   -51, -30, -5, -39, -18, -7, 5, 39,
   3, 33, -53, -8, -71, -13, 12, 45,
   7, -4, 122, 19, 37, -15, -3, -37,
   -8, -40, -35, -10, -26, 88, -25, -5,
   22, -5, -27, -12, -16, 1, -61, -49,
   1, -7, -58, -31, 21, -76, 34, 32,
   -20, -49, -29, -30, -21, -8, 3, 28,
   -12, 27, 35, -18, -35, -19, 33, 19,
   6, -13, -54, -34, 21, 15, -59, -41,
   29, 59, 54, -18, 43, -20, 1, 9,
   51, -21, 18, -15, 5, -14, -32, 6,
   29, -59, -18, 66, 10, -20, -53, 15,
   -48, 55, -36, 36, -58, -6, -14, -5,
   -11, -13, 58, 15, 20, 67, -34, 7,
   -8, 10, 9, 12, 4, -15, 28, 53,
   -32, 8, 15, -5, 41, 10, -1, -4,
   42, -23, 21, -38, -36, 23, 18, 15,
   -17, 11, 46, 28, 49, 8, 3, 9,
   11, 35, 21, 14, -2, -13, -23, 5,
   2, -19, -3, 23, 2, 28, -6, -1,
   12, 32, -28, 18, 12, -22, 27, 8,
   -1, 2, 11, 25, 0, 11, -25, 10,
   18, -36, 8, -13, -29, -40, -11, -15,
   22, 51, 11, -30, -34, 5, -27, 1,
   14, 31, -11, 16, 25, -38, -38, -24,
   -60, 56, 25, -44, 2, -48, -2, -8,
   21, 36, 26, -26, 40, -46, 49, 47,
   61, -2, 12, -30, -33, -9, 32, 31,
   25, -38, 4, -28, -11, 22, -1, -22,
   -10, -37, 41, -18, 2, -70, 11, 28,
   -13, -18, 7, -25, 16, -22, -9, -31,
   11, 30, -7, 21, 17, 16, 31, -8,
   29, -30, 23, -6, -64, -5, 13, -49,
   -33, 7, -3, -17, 42, -92, -26, -12,
   -59, 23, 50, 26, -23, 6, -47, 87,
   67, 4, 31, -48, 10, 9, 44, -26,
   8, 30, 36, 37, -12, -40, 37, 20,
   -12, 0, -6, 53, 18, 61, 25, 23,
   -12, 32, 43, 18, 8, 5, 55, -4,
   41, -83, -19, 54, -39, -40, 1, -17,
   29, -34, -29, 24, 9, -12, 19, 12,
   3, -57, 12, 67, 7, 43, -12, 4,
   -24, 2, -20, -16, 18, 26, -13, -24,
   -10, 13, -41, 48, 6, -50, -51, 24,
   -48, 9, -13, 13, -32, -44, 47, 22,
   -47, -29, -20, 43, 6, 13, 11, -31,
   -45, 39, 4, -37, -21, -26, 8, 0,
   -24, -66, -3, -60, -23, 41, -37, -28,
   -26, -17, -18, 24, 24, -2, -7, 42,
   -4, -3, 1, 4, -55, -22, -28, 1,
   17, 15, -32, 28, 30, 32, 1, -6,
   20, -24, 1, -43, -12, 101, 0, 3,
   22, -17, -26, -31, -13, 7, -27, -51,
   -34, 13, 10, -12, -36, 35, -1, 41,
   0, 15, 2, 68, -19, -19, -20, -12,
   23, 10, 6, -78, -12, -44, 35, 12,
   46, -1, 13, -5, 10, -30, -60, -19,
   16, 87, -48, 14, 8, 17, 13, 37,
   -44, 26, -61, 15, 8, -1, 31, -75,
   -37, 15, -38, -19, -26, -27, 12, -5,
   9, 22, 22, 86, 26, -12, -3, 22,
   9, 62, 48, -51, -18, 51, 57, -16,
   1, 21, 6, -32, -35, 42, -102, -36,
   -12, -40, 62, 31, -17, -26, -9, -26,
   -24, -33, -31, -42, -23, 22, -1, 2,
   -9, 28, -4, -25, 31, 9, -39, -32,
   -69, -2, -102, -38, -25, 34, -27, 13,
   4, 34, -30, 24, -4, -14, -55, -19,
   -31, 2, -17, 26, -2, -56, 12, -45,
   -18, -103, -35, -25, 17, -27, -31, -7,
   -42, 15, -32, 28, -39, -8, 21, -56,
   11, -37, -51, 28, -26, 42, 11, -14,
   31, -29, -28, 6, 43, 61, 6, 14,
   23, -48, -1, -17, -42, -72, 52, -24,
   22, -3, 65, 58, 21, -52, -68, -64,
   41, -57, 7, -27, -27, 8, 18, -7,
   -39, 7, -16, 11, 29, -4, -14, -36,
   -60, -9, 19, -23, -16, -26, -19, 26,
   2, 0, -9, 31, -44, 24, 10, -15,
   81, -3, 7, 25, -78, 71, 14, 3,
   -28, -2, -91, 20, 6, 62, -83, -86,
   -14, 53, 46, -44, 22, -90, -27, 30,
   -9, -30, 1, 7, -6, 37, -50, 17,
   16, -31, -3, 30, -31, -59, 33, -37,
   -39, 39, 18, -4, -36, 35, 30, -26,
   -22, -10, 53, 13, 2, 65, -19, 39,
   29, -45, 3, -24, -12, -22, -6, 38,
   -16, 39, 28, -16, -21, -2, 14, -17,
   6, 23, 9, 36, 21, -32, -19, 78,
   -3, -38, -5, 4, 37, -14, -6, -11,
   48, 9, 9, -3, 28, -21, 24, -37,
   -7, -13, 4, 28, 102, 62, -47, -29,
   13, -9, -19, -27, 53, 37, 74, -15,
   9, -87, 24, 37, 1, -12, 2, 11,
   -3, -1, 29, -43, -4, -20, 19, 16,
   50, -18, 5, -10, -9, 8, -30, -43,
   2, -15, -29, -9, 19, 5, -20, 7,
   -25, -23, -26, 31, 41, -45, -40, 63,
   35, 45, -30, -16, 6, -40, 93, 17,
   -36, -12, 19, -11, -17, -4, 13, 54,
   -21, -56, -40, -31, -11, 14, 34, -14,
   30, -55, 30, -1, -21, 25, 14, 6,
   10, 7, -64, -34, 38, -29, -43, 3,
   -37, -60, -51, -17, 29, 9, 27, -33,
   -29, -34, -57, 9, 54, -35, -8, -13,
   49, -11, -34, -4, 23, -15, 42, -7,
   -18, -63, -27, -37, 22, 67, -14, 99,
   10, -58, 95, -33, -11, 15, -9, 1,
   12, 14, -88, -19, -15, -1, 6, -42,
   -1, -22, -82, 17, 19, 48, -46, -46,
   -39, -14, 34, 0, -23, 52, 22, 104,
   -1, -4, -4, 61, 17, -30, 31, -45,
   73, -18, 29, -83, 78, 63, 8, 24,
   -34, -34, -3, 22, 47, -7, 49, 32,
   13, -38, -65, -37, -27, 16, 3, -37,
   58, -100, -108, -20, -44, -89, 18, 5,
   -49, -9, -58, 44, 34, -55, -3, 63,
   13, -45, 15, -14, -23, 42, -19, 27,
   -40, 46, -24, 12, -55, 27, 4, 4,
   18, 36, 1, -2, -6, -100, 39, -29,
   14, -28, -33, -1, 30, -36, 38, -28,
   24, 31, -30, -37, 14, -30, 4, -18,
   2, 14, -21, -23, -32, -6, -3, 2,
   15, 127, -32, -34, 2, -66, -39, 35,
   -79, 0, 36, -27, 12, -28, 4, -60,
   -34, 37, -88, 16, -26, -30, 50, 30,
   -59, -16, -47, -26, 54, 16, -6, -7,
   1, -18, -17, -31, -30, -1, 47, -120,
   -8, 26, -73, 19, -52, -68, -41, -55,
   34, -52, -25, -99, 27, -16, -11, -44,
   -66, 8, 21, 5, 39, 67, 33, -5,
   -63, 8, -64, -6, 50, 35, 6, 31,
   6, -43, -33, 10, -23, 9, -4, 47,
   47, -80, -61, 23, -49, 69, 20, 55,
   -36, 53, 29, 0, -22, 68, -57, -85,
   -31, 46, -31, -38, -15, -19, 23, -29,
   -9, 46, 3, -30, -32, -73, -79, -15,
   18, 23, 33, 11, -55, 35, -15, -3,
   -19, 6, -19, 36, -44, 10, -24, -15,
   -23, -42, 45, 42, -83, 17, 4, 0,
   4, -91, 40, 11, 28, 51, -11, -31,
   -48, -76, 42, -65, 18, -4, 45, -24,
   41, -2, 12, -46, 37, 105, 3, -128,
   12, -25, 33, -16, -30, -43, -54, -34,
   16, -22, -13, 33, -6, 25, 17, 21,
   -28, -2, -14, -45, 103, -19, 27, -86,
   -21, 12, 61, -31, -57, -31, -9, -36,
   -67, 46, 12, -51, -6, 54, 29, 67,
   -11, 4, 41, 7, 17, 43, -23, -42,
   -12, -21, 19, 50, 8, 49, -15, -54,
   -1, -30, -44, 72, -66, -5, 37, 92,
   30, 84, 68, -10, 27, 47, 20, 98,
   -40, 30, -56, 35, 21, -5, -41, -26,
   -21, -27, 46, -29, 1, 53, 51, -36,
   41, -51, -30, -24, 14, -36, -28, 10,
   12, 11, 13, 34, 13, -13, -20, 40,
   -7, 35, 23, -39, -47, 28, 3, -41,
   8, 5, -60, 36, 26, -25, 38, 36,
   -1, 48, 37, -14, 3, 29, 30, -29,
   25, 3, -45, 17, -26, 12, 26, -2,
   -56, -12, -56, -50, -60, -21, 37, 72,
   20, 35, 16, 8, 7, 96, -3, 29,
   -50, -14, 80, 101, 12, 32, 20, -19,
   17, 6, 46, -9, -82, -8, -20, -55,
   52, 5, -92, 18, 38, 6, -23, 28,
   -28, 55, -23, 7, 4, 17, -21, 47,
   -26, -6, 24, 42, -57, 28, -70, 25,
   33, 13, 20, 20, -46, -35, -14, 32,
   -30, 13, 94, 7, -13, 49, -15, 28,
   -56, 7, -51, -31, -32, 14, 11, 51,
   5, -21, 61, 14, -52, 38, 46, 100,
   -5, -27, 68, -3, -31, -15, -22, -9,
   32, 2, -1, -16, -21, 4, -56, -16,
   -69, 10, 10, -15, -31, 14, -4, 42,
   -1, -22, 16, -21, -26, -9, -1, 14,
   56, -23, 11, -84, 24, 49, -17, 21,
   -13, -43, -20, -36, -60, -4, 34, 65,
   16, -18, -10, -7, -25, 9, -44, 18,
   4, 13, 10, 40, 16, 66, -40, -2,
   -42, -43, 19, -51, 36, 0, -16, -18,
   -64, -46, -32, -31, 23, -5, 7, 15,
   12, -26, -25, -28, -30, -29, -7, -6,
   6, 16, 34, 41, -31, -27, 0, -9,
   -1, -16, -86, -43, 27, -20, 32, 2,
   -50, 1, -46, 6, 15, 18, -43, 7,
   -31, -17, 48, 10, 18, -21, -27, 11,
   -42, 40, -9, 13, 15, -20, 13, 19,
   -19, -27, 47, -12, -4, 30, -2, 28,
   -18, 47, -23, -33, -23, -3, 45, -50,
   -15, 5, 40, 50, -40, -12, 55, -40,
   20, 2, -19, 1, -11, 5, 1, -18,
   32, 56, 14, 29, 49, 22, -37, -55,
   -11, 32, 9, -27, -38, -11, -13, 24,
   8, 3, -75, 10, -53, 25, 4, 18,
   30, 28, 46, 1, 13, 10, 26, 3,
   -17, 52, -30, -79, 12, -77, 25, -25,
   25, 0, -44, -42, 17, -44, -1, -1,
   4, 54, -7, 24, -16, -44, -27, 9,
   -28, 35, -6, -27, -52, -26, 63, -40,
   -42, -12, 39, -4, 87, -32, -61, -19,
   58, -6, -45, 21, 17, 54, -58, 80,
   -16, -37, -35, -34, 24, 16, -19, 35,
   84, -31, 28, -54, -69, -14, 26, -8,
   63, 56, 32, -57, -78, 53, -42, -48,
   11, -5, 5, 17, -10, -2, 29, 90,
   -1, 43, -44, -3, 28, -23, -6, -23,
   10, -48, 18, 2, 10, -2, -25, 77,
   18, 14, -34, -9, -12, -91, -50, 5,
   7, 13, 30, -54, -12, -21, -6, -22,
   -21, 22, -16, 15, 5, 9, -3, 46,
   -2, 16, -46, -17, 55, 31, -4, 33,
   -22, 9, -25, 27, -53, 17, -40, -20,
   40, 37, 36, -28, 23, 3, 8, -35,
   -83, -25, -54, -1, 5, -26, 34, -35,
   5, -31, 7, -43, 50, -8, 12, -26,
   -27, 29, -25, 8, 63, 24, -34, -34,
   -54, 37, -4, -10, -19, 8, -32, 34,
   -1, 67, -11, 16, 4, -43, 11, -17,
   -21, -35, 16, -6, 29, -42, 32, 67,
   -61, 110, -60, -11, -43, -9, 19, -56,
   8, 64, 44, -18, 62, -42, -45, -19,
   -1, 42, 5, -3, 67, -47, 38, -54,
   -51, 8, -19, -12, 67, 8, 26, -5,
   5, 14, 4, 19, 66, 8, 36, 34,
   15, -59, 7, -39, -36, -38, 21, 30,
   -24, -42, 67, -10, -53, 102, -23, 3,
   6, -23, -2, 63, 36, -27, -5, 29,
   9, -12, 23, -24, 37, -11, 65, -37,
   9, 33, 28, -33, 15, -6, 10, -31,
   -1, 59, 33, 40, 14, 54, 47, 23,
   -12, 49, -8, 21, -50, -1, 34, -12,
   57, -51, 18, 27, -19, -64, -28, -42,
   34, 8, -2, 3, 36, 8, 11, -20,
   -44, 15, -4, 30, 10, -2, 0, 11,
   -51, 0, 30, 20, -21, 34, 7, -24,
   -13, -7, 9, -14, -23, 19, -4, -17,
   5, -42, -23, -36, -2, -10, -27, -111,
   85, 75, -45, -10, 33, -21, -19, -15,
   -75, -14, -9, 1, -41, -2, -74, -22,
   -19, -12, -52, -23, -4, -5, 32, 11,
   21, 36, -5, -6, 40, -34, -40, 20,
   -37, 0, 11, -30, 11, 7, 8, 36,
   34, 31, 23, 17, -19, 26, -43, -28,
   52, 74, 7, -10, 14, -55, -9, -43,
   -28, -34, 45, 2, -7, 8, -11, -3,
   3, 53, -20, 72, -39, 10, -62, 3,
   -75, 40, -30, -29, -22, 9, -66, 12,
   -40, -28, -14, -23, 53, -4, -14, -54,
   -5, -82, 14, -27, 10, -11, 9, 1,
   6, -73, -14, -23, 49, -16, -8, 41,
   -15, 6, 6, 30, -50, 61, -34, -70,
   -31, 26, -19, -25, -39, -25, 24, -14,
   -83, -9, -18, 0, -41, -20, 13, -19,
   -6, 15, -53, 29, -27, -62, 22, -24,
   20, -44, -19, 6, 3, -45, -3, 1,
   -13, -15, -26, 8, 27, 15, -43, 48,
   3, 18, -66, 13, -21, 45, 0, -23,
   10, -16, -7, 44, 4, -21, -32, -52,
   -16, 3, 28, -13, 2, 17, 45, 36,
   -34, -3, -30, -6, -60, 51, 18, 6,
   -17, 33, -22, 20, -45, -32, -64, 20,
   -12, -32, -35, 31, 43, 81, -19, -10,
   27, 3, 2, 43, 1, 39, 41, 35,
   -43, -55, -11, 18, 50, 5, 61, -62,
   45, -7, -7, 32, 0, 3, -24, -35,
   3, 1, 41, 2, 8, -38, 30, -39,
   -1, 20, 22, 20, 29, -46, -6, -6,
   16, 62, 41, 5, 36, 45, 57, -14,
   41, 26, 35, -40, 34, -4, 7, 39,
   -54, -32, 12, -44, -9, 6, -50, -22,
   68, 14, 28, 54, 37, 44, 21, 19,
   -38, -22, 1, -19, 95, 29, 27, -27,
   31, 10, 0, 0, 0, -7, -33, 31,
   55, 33, 41, -25, -8, 23, -35, -9,
   -29, -8, 29, 33, -14, -35, 15, -8,
   37, -10, 20, -15, -16, -48, -49, 41,
   -25, -26, -77, 17, 33, -25, 47, -13,
   62, -24, 12, 17, 5, -43, 33, 45,
   36, 7, 27, 29, 68, 45, 22, 13,
   51, -9, -34, -3, -16, 19, 8, -35,
   -53, 6, 5, -9, 36, 6, 19, -38,
   26, 36, -11, -2, 39, 7, -4, 38,
   -28, -1, 10, -47, -23, -22, -74, -41,
   -45, -15, -39, -3, 17, 5, 12, -20,
   -2, -6, 17, 21, 47, 21, -32, 58,
   -4, -43, 4, 22, 8, 13, -47, -31,
   -13, 7, 4, 28, 16, 28, -19, -27,
   9, 10, -46, 10, 25, 5, 0, -52,
   -50, 5, 10, -2, 47, 17, 22, 28,
   33, 4, 0, -25, -20, -27, -6, 35,
   -18, -5, 36, -8, -13, 30, -19, -17,
   -4, 0, -16, -29, 32, 22, 41, -2,
   8, -3, 6, -14, 19, 3, 7, 18,
   -16, -9, 11, 15, 15, 13, 15, -21,
   -20, -15, 9, -16, -53, -17, 29, 32,
   -6, 50, 20, -10, -56, 0, 16, 5,
   -42, 39, 12, 4, -58, 24, 30, -50,
   12, -15, 4, -41, 23, -35, 17, -4,
   -22, -22, -34, 3, -9, 26, 27, -5,
   41, -49, -34, 53, 77, -37, -11, 7,
   21, -20, -3, 49, -36, 12, -64, 3,
   3, -22, -34, -41, 6, 45, -42, -27,
   5, -5, 0, -10, -2, 13, 21, -29,
   -26, 73, -5, -39, 16, -1, 7, 5,
   16, 8, -60, 6, 49, -29, 0, 89,
   -7, -7, 48, 12, 28, -28, -20, 16,
   19, -37, 6, -24, -7, -49, 7, 4,
   21, -4, 20, 5, 22, -29, 1, -22,
   -32, 54, 19, 27, 2, -17, -6, 9,
   11, -49, -8, 24, -3, 66, -26, 1,
   67, 33, 10, 29, -2, 16, -15, -20,
   -18, 27, -21, -29, -19, 26, -35, 15,
   -30, -51, 14, -26, -40, 10, 41, -7,
   27, -38, -22, 25, -48, -63, -14, 13,
   43, -23, -19, -3, -12, -2, 29, 39,
   -24, -9, -14, -59, -28, -23, 10, -18,
   21, -20, 18, -14, -20, -36, -30, 7,
   -30, 31, -28, -1, -32, -50, 6, -14,
   4, 33, 23, 20, -44, 28, -14, -36,
   -36, 6, 105, 14, 28, 10, 44, 1,
   64, 7, 49, -21, 19, -18, -2, -19,
   25, 65, -9, 9, -14, 9, 23, 37,
   -2, -1, 22, 28, 32, 59, 61, 8,
   37, -73, 29, 2, -47, -58, -38, 35,
   23, 13, -36, -3, -3, 24, 6, -5,
   1, -39, -35, -42, 16, -9, -41, -61,
   7, -25, 14, 8, 21, 9, -48, -69,
   -15, 33, 64, -6, 12, 3, -15, 8,
   -29, -47, -14, -22, -15, 48, 26, -60,
   32, -63, 38, 46, 15, 63, -36, -45,
   55, 15, 3, 18, -25, -7, 17, -34,
   -17, -26, -30, -8, 36, -17, 12, 60,
   14, 2, -25, 30, -17, -25, -7, -28,
   13, -34, -47, -53, 31, -34, -33, 51,
   -10, -29, 15, 36, 19, -42, -30, -25,
   41, 48, 20, -21, 7, -60, -17, -31,
   -12, -23, 52, 34, -42, -4, -18, 21,
   24, -18, 41, -3, 16, -9, 47, -40,
   65, 44, 20, -44, 7, 17, -13, -74,
   33, 80, 13, 11, -4, 10, -22, -36,
   17, -43, -36, -23, 38, 53, 0, -19,
   31, -29, 39, -46, -74, -43, 1, 12,
   73, -22, 14, 58, 55, 11, -25, 40,
   -40, -43, -23, -2, 47, 15, -5, -62,
   -52, -16, 30, -24, -29, 9, -9, -72,
   -48, 8, 24, -37, 36, -13, 0, -28,
   -13, -11, 14, -25, 60, 58, 59, -56,
   -34, -52, 47, 40, 33, 24, -10, -41,
   51, 14, -54, 29, -43, -36, 12, -37,
   25, -54, -72, -26, 46, -20, 37, 36,
   21, 7, 30, 25, 13, -51, -44, 0,
   13, -20, 34, -45, -22, -38, 49, 49,
   -18, -21, 30, 13, 49, 1, -50, 10,
   2, 9, -35, 39, -5, -51, -4, -36,
   -30, 25, 58, 16, -15, 1, -3, -48,
   20, 17, 39, -10, 6, 24, 29, 7,
   43, 51, -7, -19, 37, -32, -30, -47,
   -23, 61, 0, 30, -26, -48, 34, 12,
   22, -51, -6, 6, -25, 37, 54, -14,
   51, -50, 11, 8, -74, -13, -2, 10,
   36, 16, -11, 15, 27, 27, -32, -12,
   -34, -5, -4, 15, -20, -16, -60, -7,
   1, -42, 6, -55, 10, 15, -44, -40,
   -11, 10, -7, 10, 23, -3, 35, 20,
   6, -1, 3, 24, 3, -9, 7, -38,
   18, -27, -4, -5, 57, 64, -9, 16,
   61, -19, 9, 58, -69, -14, -63, 29,
   -3, 14, -49, 1, 24, -4, 33, 12,
   -48, -30, 26, 21, 33, -12, -57, -21,
   46, -15, 59, -26, 53, -16, -42, 13,
   18, 10, -13, -19, 44, 24, 16, -42,
   -45, 7, -43, -6, 20, 79, -10, -13,
   10, 11, -17, -26, 2, 35, -2, 42,
   14, 13, 4, -23, -16, -12, 22, 28,
   9, 66, -8, 42, 20, 31, -34, 6,
   -29, -23, 21, -43, -12, 40, -9, 4,
   -31, 3, -29, -20, -37, 37, -6, -57,
   -36, -1, -18, 13, -31, 29, -56, 35,
   -13, -14, -65, -3, -6, 40, -26, 2,
   -25, 12, 14, -13, -36, 8, -15, -10,
   19, 12, 38, -20, 21, -32, 14, 33,
   13, -12, -32, -17, -2, -8, 33, -14,
   -26, -1, -1, -4, -42, 30, 1, 10,
   17, 20, 40, 13, 30, -13, -36, 27,
   17, -27, -55, 37, 26, -16, 19, 8,
   8, -13, 3, 10, -32, 15, -29, 20,
   9, 26, -9, 22, -28, -52, -8, 30,
   11, 13, 13, 32, 29, -35, -35, -21,
   -11, 36, 3, 49, -26, 1, 25, -23,
   -12, -12, -26, -41, -33, 37, 20, 17,
   -1, 34, -18, 2, 40, -20, -9, 35,
   -13, -43, 11, -32, -21, 33, 30, 0,
   23, -29, 7, 90, 24, 6, -33, -8,
   -10, -20, 34, 5, -101, 38, -20, 23,
   14, -9, -39, -10, -18, -22, 69, -26,
   -32, 29, 27, 36, 3, 39, 1, -73,
   -9, -29, -84, 6, -28, 30, -1, -28,
   -31, -25, 6, 16, -4, 15, -30, -35,
   -3, 14, 7, 6, 22, -24, 54, -6,
   10, 8, -59, 14, 31, 25, 45, 16,
   14, 28, -27, 14, -32, 56, 22, 12,
   -16, 15, 18, 23, -15, -33, 26, -10,
   -17, -7, -12, 25, -30, 10, 5, -37,
   38, -25, -51, 34, 6, 25, -49, -17,
   5, 37, 24, -42, -49, 0, 19, -7,
   -51, 16, 58, 29, 24, -30, -8, -24,
   42, 7, -3, -11, -4, 24, 58, 52,
   6, -13, 15, 35, 13, -9, 21, 31,
   40, 35, 12, -47, 14, -4, -30, -36,
   47, 37, -37, -47, 19, -4, -17, -8,
   32, 32, 11, 46, -41, -43, 2, -15,
   39, 11, 82, 2, -34, 4, 13, -1,
   5, 31, -7, -6, -30, -28, -4, -45,
   -22, -17, -25, -42, -3, 34, 0, -5,
   -3, 2, -1, -22, -28, -22, -21, -8,
   -14, 36, -13, 64, 32, -52, -36, 23,
   47, -4, -58, 6, -33, -1, -30, 44,
   -6, -8, 8, -14, 14, -13, 13, -27,
   -9, -39, 0, -48, -3, -2, -22, -42,
   44, 17, 16, -26, -16, -9, -8, 28,
   -3, 0, -34, 9, 4, 1, -34, -42,
   2, -27, -61, 53, 14, 41, -42, -2,
   -20, -23, 20, 12, -15, -12, -5, 3,
   28, 33, 52, -44, 45, 25, 31, -35,
   -4, 1, 29, 14, 4, 54, -8, 6,
   -10, -5, 3, 2, 69, 95, 58, 32,
   -31, -3, -43, -7, 17, 34, 8, -17,
   11, 23, -27, 1, -4, 0, -24, -24,
   -4, 22, 17, 15, -37, 43, -26, 20,
   -5, -8, 80, 11, 35, 15, -22, -31,
   -13, 7, -41, 30, -6, -18, 29, 11,
   -38, 20, -5, -16, 21, 24, 21, -44,
   -39, -2, 9, 42, -7, 30, 22, 10,
   -7, 5, -12, -20, -2, 18, 7, 21,
   10, 5, -9, 31, 12, -26, -12, 51,
   -7, 1, 2, 11, -10, 27, -7, 38,
   5, 1, 15, 44, -10, -35, 36, 34,
   -4, -28, 27, 4, 14, 12, 12, 25,
   -41, -3, 19, 12, 25, 28, 26, -37,
   -10, -14, -10, -7, -40, -28, 9, -29,
   7, -34, -22, 1, -14, 21, 26, 20,
   -14, 32, -67, 29, -31, -66, -31, 11,
   71, -5, 21, 40, -40, 21, 7, -2,
   -38, 0, 9, -51, -15, -35, -52, 11,
   3, -4, 24, 9, -25, -11, -14, 18,
   20, 34, 3, 34, -36, 58, 31, -6,
   33, 39, -41, 2, 19, 29, 14, -55,
   -33, 18, 34, 28, -42, -65, 30, 40,
   48, -11, 5, -40, -32, -19, 27, 25,
   3, 14, -2, -42, 27, -21, -57, -36,
   -33, -8, -28, -5, -10, 17, 31, 16,
   5, -43, 60, 16, 4, -43, 2, 33,
   32, -47, 21, 27, -27, -8, -18, 4,
   -35, 60, -4, 0, 5, -41, -34, 44,
   -2, 26, 39, -40, 33, -1, 50, -45,
   4, 2, -23, 4, -12, -6, -26, 3,
   15, 6, -31, 19, -33, 4, -58, -19,
   16, 8, -39, 22, 25, 3, 20, 51,
   14, 12, -27, -3, 25, -53, -20, 16
};

static const rnn_weight noise_gru_recurrent_weights[6912] = {
   -28, -27, 9, -7, 14, 21, -3, -62,
   14, 41, 30, -24, -56, 2, 14, 0,
   -2, -15, 37, -19, -24, 13, -51, 6,
   -54, 10, -4, 0, -6, -18, -25, 26,
   -28, 3, -11, 10, -13, 8, 8, -11,
   29, -35, 8, 35, -8, -33, -4, 0,
   38, 32, -53, 1, -19, 17, 16, -9,
   21, 28, -17, 7, 0, -11, -28, -25,
   -31, 21, -26, -35, -6, -14, 16, -1,
   18, 7, -24, 12, -36, -24, 85, -34,
   -3, 24, 22, 13, 15, 9, 15, -13,
   -11, -7, -22, 17, -18, -10, -10, 23,
   -7, 47, -14, -12, 7, -16, -46, -9,
   -4, 26, -22, -19, -28, 20, -12, -10,
   -6, -5, 31, -34, -27, -10, -15, 6,
   38, 18, 44, 13, 35, -3, 72, -17,
   -5, 0, 34, 15, -22, 24, 45, 63,
   19, 5, -15, -7, -35, 6, 7, 5,
   -20, 2, -3, -1, 29, -21, -5, 8,
   -8, -19, -35, 22, -55, 22, -35, 3,
   28, 8, -34, -5, -14, -79, -52, -67,
   -3, 49, -30, -22, 3, -48, -13, -18,
   -4, -9, 1, -9, -22, 21, -2, 9,
   -7, -7, -56, 8, 12, 41, -49, 45,
   14, 12, 19, -42, -11, 28, -28, -19,
   -18, 38, 13, -13, 0, 16, 57, -28,
   33, 26, -19, -28, 41, -27, -18, 25,
   32, 2, -71, 7, 27, -4, -7, -17,
   -8, 39, -12, -29, 12, -18, -17, 11,
   -19, 17, -16, -27, -14, -39, -1, -3,
   50, 36, -11, -4, 9, 37, 26, 21,
   -16, 0, -26, 30, 20, -16, 22, 3,
   18, 1, 34, -12, 45, -4, 37, 42,
   -14, 61, -14, 38, -7, 14, 21, 21,
   25, 18, 3, 52, -6, -22, 4, -46,
   -8, 42, 6, 47, -33, -20, -30, 18,
   48, -22, -2, 23, -17, -71, -38, 33,
   13, -9, 10, 29, 3, 6, 42, 1,
   19, 0, -29, -37, -20, -42, 23, -44,
   1, -6, 21, -14, -5, -22, 35, -12,
   -19, -9, -56, -24, 54, -67, 36, -15,
   5, -13, 29, -9, -13, 6, -27, -55,
   10, 51, -22, 64, 55, -36, 34, -1,
   11, -42, 1, 22, 44, -10, 30, 13,
   63, -17, -47, -14, -14, -66, -13, -1,
   -21, -17, 53, -12, 8, 3, 32, -9,
   -13, 54, -50, 29, 22, 57, 7, -51,
   2, 53, 35, -40, 10, -28, 16, -73,
   -28, -32, 59, -19, 20, 29, -3, 16,
   24, 0, 79, -65, 14, 20, 30, 28,
   -38, 5, 25, 57, -13, 76, -21, -36,
   -2, -36, -9, 42, -13, -25, -60, 26,
   -7, 23, -5, 73, 55, -17, 0, 58,
   -16, -1, -9, 58, 14, -19, 28, -24,
   -9, 19, -28, 33, 6, 25, 20, -46,
   0, -14, 6, -21, -24, 12, 5, -12,
   -7, 19, 12, 14, -15, -17, -15, -7,
   13, 20, 15, 28, -10, 28, 42, 13,
   -13, 10, 8, 20, 8, 43, -9, -3,
   12, -44, 30, 29, 17, 12, 1, -51,
   -5, -58, 15, -45, -20, 2, -4, 29,
   -28, 7, -18, -15, 20, -31, -24, 24,
   -8, -16, 33, 17, -56, -7, -3, -13,
   18, 27, 7, -39, 1, -9, 31, 2,
   5, 5, 18, -9, 47, 11, 32, 10,
   31, 14, 21, -3, -4, 71, 41, -27,
   -29, -39, 45, -11, 19, 7, 21, 11,
   0, -18, -5, 11, 0, -39, -2, 46,
   -48, 14, 33, 12, -32, -28, -7, 0,
   6, 9, 31, 14, 23, 17, 17, -22,
   23, -17, 10, -2, -76, 8, -10, 45,
   -1, 1, 20, 15, -27, -28, 16, 7,
   -7, -31, -36, 7, 16, -16, 4, -33,
   6, 1, -20, 0, -53, -27, 54, -6,
   37, -3, 13, 18, -15, -18, 25, 27,
   20, -39, 19, -11, 35, 11, -3, -14,
   -13, 3, -10, 6, 2, -6, 27, -27,
   15, 18, 18, 5, -19, 24, -12, -72,
   -25, -11, 20, -38, -21, -18, -27, -31,
   15, -6, 20, -27, 16, -16, 32, 2,
   -28, -20, 8, 6, -4, -22, -9, -5,
   -35, 17, -15, -13, -18, 0, -25, -28,
   -2, -42, 5, 25, -13, -20, 4, 20,
   20, -7, 13, 52, 22, 16, -26, -9,
   2, 43, -8, 20, -56, 17, -28, 56,
   16, 19, -19, 9, 19, 20, 15, 41,
   -4, 22, -1, 38, -3, -22, 11, -5,
   -8, 37, -42, -9, -16, 9, 24, 2,
   -9, 18, 11, 50, -12, -50, -28, -2,
   20, 6, -16, -20, 2, -18, 36, -31,
   -11, -9, -61, 2, 25, -45, -7, 8,
   -39, 11, -65, -35, -9, -25, -39, 1,
   -42, 44, 28, -18, -10, 24, 57, -24,
   19, -14, 20, 7, 14, -23, 16, -18,
   2, 30, -17, 39, 8, 12, -14, -18,
   7, 38, 23, -2, -29, -12, -24, 37,
   -2, 40, 35, 0, -39, -15, 16, -27,
   13, -32, 11, -7, 21, -15, 32, -3,
   3, -12, 16, 32, -22, 19, 3, 19,
   31, 62, -1, 9, 1, 3, -15, 17,
   28, 6, 34, -43, 5, 2, -20, 45,
   19, 33, -45, -25, 20, -34, -25, 37,
   -7, 3, 14, 4, 3, -3, -30, -10,
   13, -19, 24, 11, -29, 17, 24, -17,
   -16, -31, 4, -10, 11, 12, -18, 9,
   46, 24, -17, 1, -9, 0, -20, -25,
   -3, 1, 40, -3, 1, 9, -37, -8,
   13, -16, -22, 22, -5, -6, 20, 2,
   28, 32, -38, -29, 18, -30, 7, -9,
   23, 2, 10, -16, 1, -53, -3, -10,
   -8, 12, -1, -37, 5, -15, -2, 22,
   21, -19, 46, 14, 19, 5, 58, -30,
   5, -15, 0, 6, 15, -23, 25, 15,
   22, -17, -6, 6, 16, -15, 19, 42,
   -24, -2, 44, -43, -6, 10, 18, 2,
   15, -17, -23, -2, -17, 15, 12, 4,
   15, 9, -1, -3, 14, -12, 22, -1,
   29, -16, -21, -15, -26, 20, 12, -23,
   3, -64, 2, 52, 35, -31, 0, 1,
   11, 41, 24, 17, -24, -9, 27, -31,
   5, 8, -27, 2, -17, -13, 14, -8,
   -8, -41, -3, -42, 23, 43, 8, -7,
   -24, 21, 59, -4, 20, -3, 16, 18,
   3, -41, 15, 16, -8, 24, 40, 26,
   -4, -25, 30, 3, 21, -7, -37, 72,
   -3, -8, 1, -11, 29, -22, 38, 15,
   39, -19, 6, 6, 10, -30, -3, 52,
   5, -19, -38, -9, 16, -58, -39, 20,
   32, 18, -21, -44, -16, 23, -24, -32,
   -40, 8, 24, -21, 36, 17, 8, 0,
   -20, -19, 26, -16, -9, 59, -12, 9,
   34, -9, 12, -40, 38, -1, -67, 29,
   -3, -15, 25, -12, -1, 19, 11, -3,
   -7, 23, -17, 29, 15, -5, 22, -42,
   39, 38, 23, -23, 12, -81, -47, 18,
   16, -15, 55, -15, 4, 7, 17, -13,
   2, 0, -35, -6, 22, 18, 4, -5,
   25, -19, -3, -41, 8, 26, 20, 7,
   -10, -5, 0, 3, 19, 33, -20, 17,
   8, -4, -17, 25, 10, 11, 9, 27,
   38, -18, -22, -13, 3, 62, 38, 7,
   22, 9, 29, 3, -33, -10, 33, -9,
   0, 25, -30, 3, 44, 17, -27, -22,
   9, -33, -9, -19, -5, 10, 14, -39,
   11, 31, -47, 27, -37, -28, 11, 17,
   -6, 14, -39, 7, 11, 27, 43, -23,
   12, 29, -34, 4, -33, 28, 84, 40,
   32, -42, 11, 6, -2, -35, -7, -5,
   21, -34, -9, 0, 18, -37, -22, -2,
   26, 11, 41, 31, 25, 57, -10, 64,
   46, 43, 17, -44, -48, -25, 42, 18,
   -19, 0, -9, 6, 12, 13, 2, -3,
   -17, -46, 21, -33, 34, -16, -62, 0,
   6, 16, -35, -1, -21, -1, 15, -7,
   28, -29, -5, -24, -5, 40, 11, -14,
   8, -1, 14, 56, 0, 25, 17, -3,
   36, -23, 52, -13, -10, 10, -9, 28,
   17, 20, 28, -80, 9, -14, -50, 42,
   54, 4, 20, -42, -28, -13, -22, 22,
   -7, -20, -10, 53, 15, -8, 7, -23,
   -24, 41, -21, 4, 0, 5, 7, -30,
   11, -24, -31, -30, 11, -27, -8, 13,
   -20, 35, -40, -20, 19, -3, 6, -2,
   -55, -5, -5, 5, 13, -22, 7, 30,
   -7, 7, 1, -27, -15, 9, -2, 2,
   2, -49, 27, -7, -20, -18, -34, -16,
   -43, 2, 24, 15, -28, 31, 12, 6,
   -14, 9, -26, 12, -28, -39, 5, -4,
   12, 14, -5, 43, 35, 11, -5, 21,
   -34, 5, -50, 36, -19, -29, 27, 42,
   -6, -3, 7, -6, -29, 35, -2, -17,
   -4, -23, 12, 18, 29, -10, 6, 28,
   -6, -13, 67, 18, 30, -24, -42, -36,
   2, -4, 17, -13, 16, -18, 9, -22,
   52, 44, -11, 29, -45, -11, 2, 30,
   3, 1, -9, -6, -17, 29, 9, 46,
   -20, 4, 8, -31, -20, -27, 29, 35,
   4, 13, -9, 10, 15, 37, 2, -38,
   21, -11, 8, 40, -6, -7, 19, 32,
   57, -1, 16, -13, 18, 19, 6, 4,
   -6, -29, 30, 7, 69, -38, -49, 17,
   -15, -1, -22, -32, 16, -4, 9, 49,
   -26, -6, -39, 3, -11, 16, 21, -20,
   5, -19, 7, -20, 9, -2, 11, 8,
   3, -7, 2, -42, 51, 5, 17, -3,
   -5, -13, -4, -2, -15, -18, -20, 9,
   9, -9, -16, -50, -4, -1, -5, -3,
   10, 16, 26, 3, -8, 39, 17, -10,
   15, -41, -28, -16, 39, 12, -30, 21,
   32, 29, 20, -21, 71, -6, -17, 2,
   -4, -9, -51, 19, -8, -13, -22, -23,
   25, -2, 5, 12, -71, 54, -1, 15,
   18, -8, -38, 0, 12, 20, 22, 27,
   29, 10, -53, -10, 1, 0, 27, -24,
   -36, -5, 36, 46, -9, -10, 17, 8,
   -19, -46, -54, -24, 15, -33, -22, -5,
   28, 4, -19, -9, 16, 25, 17, 0,
   -32, -13, -15, 32, -14, 30, 12, -12,
   57, -5, -26, -11, 4, -16, 21, -29,
   -68, -3, 17, 8, -3, 15, -42, -26,
   25, -36, -22, -21, -33, 9, -44, 53,
   35, -1, 43, 5, 25, 5, 15, -2,
   -24, 7, 54, 25, -51, -25, -5, 4,
   52, 48, -1, -11, 17, 0, 35, -17,
   -7, -57, 20, 8, 10, 32, -43, -22,
   19, -14, 11, -18, -13, -15, -21, -51,
   -32, -43, 3, 8, 34, 4, 2, 3,
   20, 14, -19, 22, -22, 9, 5, -63,
   -1, 28, 10, 58, 24, -23, -18, -19,
   11, 17, 3, -4, 13, 11, 18, -8,
   24, 36, -5, -16, 15, 12, -8, 10,
   -43, 9, 3, 33, -46, -9, 19, 21,
   -10, 14, 33, -3, 27, -7, 34, -34,
   27, -14, 15, -10, 41, -8, -35, -8,
   -17, 12, 37, -28, 19, 0, 0, -60,
   22, -26, 2, -23, 3, -5, 8, 47,
   -2, -16, 9, -27, -13, 19, 20, -52,
   28, 17, -20, 0, -24, 21, -4, 39,
   -5, -8, -13, 7, -17, -13, 9, 30,
   -15, 21, 11, 0, -1, -25, 3, 28,
   -2, -51, -54, 17, -17, -17, -32, 2,
   -2, 50, -8, -50, -29, -43, 9, -26,
   16, 3, -5, -28, -12, -17, -21, 2,
   -22, 16, 1, 2, -41, 34, 17, 26,
   11, -1, 7, -22, -22, 1, -14, -2,
   58, -23, 15, 30, 13, 17, -26, 24,
   -50, -34, -14, -56, 31, 2, 11, 5,
   30, 13, 42, 23, 23, 5, 18, -13,
   3, 27, 54, -30, -9, -35, -9, 38,
   11, 3, 39, -8, 2, -1, 1, -4,
   -16, -7, 0, -35, 3, -5, -12, 70,
   25, 26, 2, -16, -36, -18, -26, 52,
   3, 7, 23, -22, 46, 8, 15, 17,
   0, -22, -8, 20, 33, 11, 21, -5,
   0, -8, 2, 28, -25, -24, -8, -8,
   23, -4, -13, -1, -8, -3, 35, 29,
   -14, -23, -74, -29, -9, -11, 2, 24,
   9, -30, 9, -35, 59, -13, 31, 0,
   15, 26, 0, 38, 52, -13, 40, -37,
   23, -21, -17, -13, 6, -2, -11, -43,
   -58, 10, 29, 12, -17, 14, -1, 25,
   -8, -46, 8, 25, -20, 8, 40, 28,
   16, -16, 3, -15, -7, 2, -26, 46,
   -22, 17, 46, 29, 11, 2, 23, -11,
   -8, 6, 28, 3, -6, -7, -4, -9,
   -8, -34, 20, 1, -21, -3, 37, -24,
   -12, -14, 7, 34, 21, -16, -1, -27,
   18, -42, 16, -33, 6, -34, -1, 12,
   37, 16, -15, 1, 32, -14, -2, -17,
   22, 20, -9, 34, -27, -1, -10, -10,
   -9, 7, 51, -18, -14, 17, 12, -18,
   -40, -2, -11, -5, -16, -23, 28, -10,
   -1, -40, 10, -34, 1, -2, -34, 15,
   -11, 26, -20, -60, -12, -38, 8, 28,
   -6, -14, -18, -47, -30, -42, 41, 30,
   4, 30, 11, -5, 5, 24, 1, -3,
   -15, 26, 11, -3, 36, 7, 24, 51,
   -41, -16, 33, -49, -22, 23, -11, -46,
   -12, 3, 34, -15, 6, -14, -6, 6,
   11, -22, 11, 41, -28, -42, -1, -6,
   -42, -7, -8, 41, 10, -1, 43, -13,
   6, -13, -6, -31, 6, -5, 42, 6,
   -6, -33, 20, 24, 17, 23, 4, 27,
   -23, 13, -11, 27, 40, -28, -3, 40,
   -29, -9, 48, 45, -9, -7, 40, 19,
   -1, 2, 17, -19, -14, 5, 1, 19,
   9, 20, 14, -3, 23, -31, 20, -22,
   26, 30, 7, 45, 4, -3, 8, 19,
   5, 24, -27, 25, 44, -47, 15, -25,
   -35, 15, -25, -12, -49, -30, 30, 2,
   33, -30, -41, 42, -27, 9, -14, -6,
   18, 39, 19, 4, 6, 15, -2, -2,
   -2, -11, -48, -22, -13, -30, 50, 13,
   17, -39, 61, -25, 31, 10, 3, -22,
   26, -48, -47, -38, 68, -48, -5, -23,
   0, 13, -4, 39, -26, 62, -31, 62,
   -3, -24, 45, 7, -8, -41, 25, 28,
   73, -17, 17, -14, 49, -3, -7, 26,
   -14, 1, -5, -11, 2, -19, -44, 3,
   11, -11, -18, -15, -61, 56, 8, -4,
   -15, 36, 2, 23, 26, 26, -47, 0,
   -25, 1, 24, 29, 7, 14, 11, 11,
   -5, -66, -7, -12, 7, -35, -31, 12,
   21, -42, 18, -4, -2, 22, -21, 23,
   -6, -20, 4, 4, 27, -13, -8, 20,
   -45, 15, 10, -33, 5, -15, -14, -26,
   6, 13, -21, 23, -32, -16, 20, -26,
   -21, 59, -34, -77, -5, 7, 53, 18,
   -8, -9, -17, 30, -23, 28, 31, 21,
   32, 36, -25, -6, -23, -27, -9, -50,
   -11, -14, -23, -20, -33, -27, 12, -45,
   -18, 12, 13, 5, -16, -17, -43, -23,
   11, 38, -34, 36, 29, 5, 40, 18,
   -2, -12, 31, -20, -15, 6, -39, -16,
   -31, 6, -7, -17, -6, -16, 25, 8,
   -6, -14, -29, 11, 27, 45, 30, 49,
   -4, -3, 4, 13, -7, 26, -8, 23,
   18, 6, -24, -16, -33, 5, 25, -10,
   12, -25, 28, 46, 48, -4, 34, -42,
   16, 32, -14, 21, 11, 6, -22, 5,
   -4, 38, 26, -25, 9, 40, 7, -3,
   26, 15, 15, 26, -22, -19, 15, 38,
   14, 34, 19, 13, 3, 11, 11, 1,
   28, -17, 1, 8, 43, 47, 0, 2,
   -11, -35, -9, -22, 21, 13, 18, 16,
   45, -25, -30, -30, -7, 25, 15, -21,
   -10, -3, -35, -32, 48, 2, -48, 17,
   -44, -7, -40, -18, -2, 40, -11, 3,
   -8, 2, -22, 20, -8, -4, -6, -66,
   -5, -21, 15, -23, 20, -14, 57, -22,
   45, -7, -12, 6, 62, -40, 32, -38,
   44, 3, -30, 38, 25, 7, 0, -27,
   -33, 15, -13, -19, 2, -19, 14, 6,
   32, 35, -24, 7, 8, -13, -4, -19,
   -69, 17, 15, -32, 17, 21, 2, -16,
   14, -5, 10, -20, 8, 21, -14, 10,
   -51, -3, -9, -2, 19, -28, -15, -20,
   -34, 8, -14, -51, -9, 18, -31, 25,
   48, -27, -5, -1, 10, 0, 36, 7,
   35, 25, 11, 2, 10, -18, 34, 35,
   5, 24, -2, -6, -15, -21, 0, 26,
   39, 27, 6, 18, 21, 2, 8, 14,
   -37, 35, 32, -12, 9, -4, -3, -26,
   -9, -19, -21, -31, -11, -18, 2, 28,
   47, 37, 72, 42, -53, -5, -4, 5,
   -23, 46, -32, 3, 42, -21, 30, -29,
   -16, -5, -3, 38, -2, 22, 25, -12,
   -21, 3, 56, -54, 25, 43, -16, -7,
   -6, -19, -92, -24, 35, -23, 15, -9,
   43, 44, -14, 58, -47, 27, -2, 36,
   20, 22, 64, 9, -69, -6, -1, -26,
   2, 54, -37, 3, 36, -34, 15, 8,
   -1, -63, 34, 4, -15, 4, -48, 19,
   8, -4, 13, 15, -26, 6, 28, -24,
   0, -37, -22, 8, 37, 43, -32, -15,
   5, -20, 15, 18, -34, 6, 17, 24,
   4, -17, -15, 4, -28, 37, 20, -11,
   9, -19, 1, -33, -11, 11, -13, 1,
   9, -38, 14, 11, 29, 24, -27, 1,
   52, 10, 5, 57, 20, -21, -8, -3,
   -1, 11, -18, 18, 49, -30, 11, 10,
   -47, -17, 0, -8, 26, -21, -4, -42,
   3, -31, -26, -5, -44, -23, 8, -20,
   -25, 35, 1, 13, -45, -56, 78, 9,
   6, -40, -9, 50, -10, -9, 23, -7,
   54, -38, 41, -12, 41, 12, -19, 18,
   22, -16, -56, -39, 65, -14, 46, 61,
   -12, -15, 10, -27, 20, -7, 20, 12,
   -14, 5, 7, 20, -11, 22, 14, 20,
   4, 14, -35, -41, -2, -20, 8, 15,
   16, 5, 8, 13, -17, -21, 21, 9,
   -23, 4, 1, 5, 17, -4, 19, 23,
   -8, 11, 34, -27, -36, 34, 23, -35,
   -17, 23, 42, 36, -3, 17, 18, 21,
   0, 39, -9, -2, 19, 25, 13, 6,
   32, -43, 13, -4, -31, -15, -41, 27,
   13, -45, 22, 35, 37, 4, -65, 29,
   -11, -6, -21, 22, 7, 0, 16, -18,
   -1, -11, 44, -17, 44, 24, -48, 42,
   43, -1, 20, -10, 8, -4, 15, -24,
   -15, 26, -6, 3, 13, -4, 17, -12,
   -13, 7, -13, 24, 6, -19, -6, 26,
   -13, 5, -49, -31, -34, -13, 1, 9,
   34, 32, 35, -20, 11, 25, 19, -22,
   2, 15, -36, 19, 48, 3, -1, 17,
   12, 28, 28, 33, 6, -39, -36, -53,
   -22, -5, 33, -11, -26, 7, -4, -12,
   14, 27, 53, -27, -27, 25, 19, 25,
   0, -7, 9, 5, -35, 5, 51, 26,
   -56, -70, 49, 0, 11, -10, -5, 6,
   4, -14, 0, 34, -14, -7, -3, -7,
   12, -8, 19, -15, -18, 9, 3, 5,
   10, -12, 19, -11, 31, 28, -13, 4,
   -25, 9, -3, -1, -3, 72, 5, 34,
   16, 16, 17, 26, -1, -11, -13, 36,
   36, -12, 25, 10, -35, -10, -9, 35,
   -4, 16, 34, -21, 23, -21, 24, 16,
   5, 14, -60, 7, -8, 76, 2, 82,
   -48, 25, -61, 5, 2, -32, -15, 34,
   -7, 109, -66, -13, -6, -38, 58, -50,
   -44, 46, 12, -25, -14, -35, -25, -16,
   11, -8, 45, 20, 25, 24, 36, 12,
   -18, -72, -36, 13, 36, 0, 82, -20,
   28, 4, -3, -56, -22, -29, -7, -3,
   11, -14, 45, 52, 48, 24, 3, -1,
   -8, 33, -21, 6, 36, 17, 5, 24,
   16, -18, -3, -31, 13, 5, 54, 57,
   20, 33, -2, 11, -9, 5, 55, -20,
   6, -46, 9, -30, 24, -19, 14, 26,
   16, 21, 28, 17, -51, -28, -5, -73,
   7, 9, 49, 28, 21, 5, -41, 26,
   37, 2, 52, -7, 20, -10, 11, 40,
   47, 34, -41, -22, 11, -16, -29, 6,
   0, 21, -17, -10, 2, 27, -34, 60,
   35, -40, -20, -31, 76, 34, 28, 73,
   -22, -13, 15, -14, 3, 17, -35, -35,
   58, -51, -40, 21, 6, -8, -18, 11,
   -11, 21, -38, -40, -7, 6, 24, -36,
   11, 16, -6, -6, 43, -2, 10, 36,
   -7, -20, -36, -4, -14, 51, -8, -32,
   40, -38, 6, 35, 18, -26, 21, 18,
   25, -21, -12, 59, 1, 13, -19, -3,
   24, -48, 4, 25, 17, 11, -40, -39,
   36, -33, 21, 2, -10, -2, 26, 29,
   8, 24, 6, -4, 12, -19, 3, 4,
   9, 6, 43, -7, -17, -23, -2, -18,
   -14, 11, -3, 13, -2, 4, -9, -26,
   18, -13, -15, -32, 6, 23, 38, -30,
   -8, -5, 14, 16, -11, 22, 48, -15,
   26, 22, 11, 10, 8, -14, -31, 29,
   -21, -5, 12, 2, 56, -10, -16, 38,
   -6, 16, -20, -14, -7, -34, 25, 12,
   -18, 37, 28, 34, -6, 38, 25, 7,
   9, -41, -32, 6, -18, 12, -6, 43,
   44, -32, -18, 6, 15, 63, -17, 17,
   -25, 6, -38, 28, -36, 37, 19, 7,
   -8, -45, -18, 8, 11, -47, -1, 19,
   -26, -28, -28, -2, 35, -12, -57, 0,
   -27, -22, -11, -27, -59, 0, 2, -28,
   -16, 2, -34, -5, -32, 15, -50, -51,
   -10, 10, 38, 13, 1, 17, -12, 23,
   -4, 29, -18, -32, -38, -3, 22, -28,
   1, 30, -16, -37, -16, 30, 18, 23,
   -7, 25, -22, -19, 1, -3, 31, 26,
   28, -17, -26, 25, 11, 17, 14, 65,
   -3, 13, -37, 27, 37, -18, -34, 0,
   -8, 28, 4, 8, 13, 11, -17, -36,
   -19, 28, -7, -37, -2, 18, -2, 11,
   -19, 41, 6, -51, -10, -46, 3, -11,
   40, 2, 48, 15, 0, 37, -3, -19,
   38, 2, 1, -5, -2, 8, -19, -26,
   50, -7, -10, 15, 15, 10, 7, -3,
   -1, -39, -4, -7, 6, -16, 5, 19,
   -50, -4, -33, 12, 3, -19, 23, -6,
   26, -54, -50, 16, -64, 7, 66, -21,
   -4, -10, 30, 10, 24, 25, -8, 29,
   5, 14, -53, 4, 34, 11, -19, -20,
   19, -20, -15, 30, 49, -36, 41, 1,
   -22, 0, -17, -1, -11, 17, -13, -31,
   11, 1, -5, 25, 5, 21, -5, 16,
   2, 35, -26, -9, -8, -27, -16, 47,
   35, 24, -24, -29, -19, -2, 4, 10,
   6, -14, 20, -1, 24, -16, -6, -40,
   -24, -24, -14, -30, 21, -31, 5, -27,
   20, -16, 23, 47, 32, -11, 14, -38,
   22, -32, -32, -8, -20, 46, -13, 25,
   25, 14, -40, 49, 2, 44, -8, -7,
   -16, -37, -26, 31, -23, -8, -21, 25,
   12, -12, -20, 13, -8, -64, -17, -17,
   10, 7, -21, 16, -13, 5, 30, -2,
   20, 11, -14, 16, 24, -14, -27, 1,
   -14, -2, -16, -32, -12, -18, 18, -37,
   23, -15, 21, 3, -19, -10, 39, -1,
   18, 1, 54, 11, 13, 7, 31, -40,
   -25, -15, 36, 40, 61, -8, -26, 1,
   13, 11, -50, 28, 6, 3, -56, 14,
   0, -12, -32, -24, -37, -30, -34, -14,
   18, -15, 1, 14, -2, -36, 12, -6,
   1, 7, -7, -55, 25, 17, -8, 70,
   -11, 15, -12, 7, 27, -18, 12, -14,
   17, -1, -16, -14, 18, 9, 4, 29,
